{"learner":{"attributes":{"scikit_learn":"{\"_estimator_type\": \"classifier\"}"},"feature_names":[],"feature_types":[],"gradient_booster":{"model":{"gbtree_model_param":{"num_parallel_tree":"1","num_trees":"100"},"iteration_indptr":[0,1,2,3,4,5,6,7,8,9,10,11,12,13,14,15,16,17,18,19,20,21,22,23,24,25,26,27,28,29,30,31,32,33,34,35,36,37,38,39,40,41,42,43,44,45,46,47,48,49,50,51,52,53,54,55,56,57,58,59,60,61,62,63,64,65,66,67,68,69,70,71,72,73,74,75,76,77,78,79,80,81,82,83,84,85,86,87,88,89,90,91,92,93,94,95,96,97,98,99,100],"tree_info":[0,0,0,0,0,0,0,0,0,0,0,0,0,0,0,0,0,0,0,0,0,0,0,0,0,0,0,0,0,0,0,0,0,0,0,0,0,0,0,0,0,0,0,0,0,0,0,0,0,0,0,0,0,0,0,0,0,0,0,0,0,0,0,0,0,0,0,0,0,0,0,0,0,0,0,0,0,0,0,0,0,0,0,0,0,0,0,0,0,0,0,0,0,0,0,0,0,0,0,0],"trees":[{"base_weights":[-3.5074896E-5,-1.4357271E0,4.086343E-1,-1.5169848E0,7.2973335E-1,3.544534E-2,1.4957212E0,-1.60934E0,-2.500222E-1,-7.076834E-1,1.0907837E0,-2.8893963E-1,1.2631444E0,1.5854651E0,2.0266953E-1,-1.6510597E0,4.5051467E-2,1.2237558E0,-8.7686753E-1,-1.3473883E0,5.860535E-1,-7.9745656E-1,1.298391E0,-6.085847E-1,1.0932859E0,-1.9537446E-1,1.4600973E0,1.0536885E0,1.8129289E0,1.7158267E0,-1.3147829E0,-1.7113686E0,-7.6682115E-1,-1.2062204E0,5.7273954E-1,-3.6485487E-1,1.6080856E0,-8.8041976E-2,-1.5144137E0,-1.6309084E-1,-2.8370023E-2,-7.557269E-2,1.4378266E-1,7.087999E-2,-1.445383E-1,1.724476E-1,1.5747863E0,-8.1349385E-1,9.722864E-1,6.416753E-1,1.6859405E0,-1.1882448E0,2.776887E-1,1.8110566E0,1.1430904E0,5.960165E-1,1.3590162E0,-9.868999E-1,1.8398126E0,1.9621952E0,-1.2382078E-1,-1.5822275E0,1.2612908E0,-1.748294E-1,-5.203044E-2,-1.17423534E-1,5.1665634E-2,9.5757425E-2,-1.7191759E-1,8.2542226E-2,-1.1462895E-1,-1.1788414E-1,1.321535E-1,1.9021343E-1,-8.044855E-2,-1.0080069E-1,7.0342E-2,-1.6472688E-1,7.172343E-2,-1.0308518E-1,1.4615151E-1,1.774755E-1,5.994475E-3,-9.514763E-2,1.0039401E-1,4.3473378E-2,1.6646151E-1,3.301141E-2,1.6615988E-1,-1.0458825E-1,1.7747073E-1,-1.5124096E-1,5.630296E-2,-1.1032575E-2,1.2435844E-1,-9.0027854E-2,1.857512E-1,1.9165782E-2,1.3316773E-1,-6.3046888E-3,1.422995E-1,-1.0698425E-1,1.4126687E-1,-1.5369983E-1,7.172343E-2,1.8528956E-1,-7.974566E-2,2.640093E-2,2.0056641E-1,9.5757425E-2,-1.7124297E-1,2.640093E-2,1.5231188E-1],"categories":[],"categories_nodes":[],"categories_segments":[],"categories_sizes":[],"default_left":[0,0,0,0,0,0,0,0,0,0,0,0,0,0,0,0,0,0,0,0,0,0,0,0,0,0,0,0,0,0,0,0,0,0,0,0,0,0,0,0,0,0,0,0,0,0,0,0,0,0,0,0,0,0,0,0,0,0,0,0,0,0,0,0,0,0,0,0,0,0,0,0,0,0,0,0,0,0,0,0,0,0,0,0,0,0,0,0,0,0,0,0,0,0,0,0,0,0,0,0,0,0,0,0,0,0,0,0,0,0,0,0,0],"id":0,"left_children":[1,3,5,7,9,11,13,15,17,19,21,23,25,27,29,31,33,35,37,39,41,43,45,47,49,51,53,55,57,59,61,63,65,67,69,71,73,75,77,-1,-1,-1,-1,-1,-1,79,81,83,85,87,89,91,93,95,97,99,101,103,105,107,-1,109,111,-1,-1,-1,-1,-1,-1,-1,-1,-1,-1,-1,-1,-1,-1,-1,-1,-1,-1,-1,-1,-1,-1,-1,-1,-1,-1,-1,-1,-1,-1,-1,-1,-1,-1,-1,-1,-1,-1,-1,-1,-1,-1,-1,-1,-1,-1,-1,-1,-1,-1],"loss_changes":[4.1911025E3,2.7961353E2,2.2557607E3,1.781394E2,3.0831339E1,1.649285E3,1.645774E2,9.822266E1,9.794076E1,1.0914823E1,1.933686E1,1.4480319E3,2.4891907E2,1.5880151E2,2.1664793E2,7.2656006E1,2.4428608E1,1.99454E1,3.715634E1,2.0975456E0,6.509341E0,6.1423807E0,1.2936584E1,8.628689E2,1.6369312E2,4.9110012E1,8.27832E1,5.514746E1,7.175659E1,3.677011E1,3.450425E1,5.6162598E1,4.7864204E1,1.3839928E1,1.2224555E1,1.1155235E1,1.977304E1,2.5613161E1,1.3320778E1,0E0,0E0,0E0,0E0,0E0,0E0,1.6223915E1,1.0178902E1,5.9189124E2,1.1309219E2,1.1099115E2,6.6269775E1,1.9985416E1,2.6803503E1,4.7047485E1,7.2132324E1,8.839795E1,3.2710632E1,9.99692E0,3.3245117E1,2.714035E0,0E0,1.5922447E1,9.020009E-1,0E0,0E0,0E0,0E0,0E0,0E0,0E0,0E0,0E0,0E0,0E0,0E0,0E0,0E0,0E0,0E0,0E0,0E0,0E0,0E0,0E0,0E0,0E0,0E0,0E0,0E0,0E0,0E0,0E0,0E0,0E0,0E0,0E0,0E0,0E0,0E0,0E0,0E0,0E0,0E0,0E0,0E0,0E0,0E0,0E0,0E0,0E0,0E0,0E0,0E0],"parents":[2147483647,0,0,1,1,2,2,3,3,4,4,5,5,6,6,7,7,8,8,9,9,10,10,11,11,12,12,13,13,14,14,15,15,16,16,17,17,18,18,19,19,20,20,21,21,22,22,23,23,24,24,25,25,26,26,27,27,28,28,29,29,30,30,31,31,32,32,33,33,34,34,35,35,36,36,37,37,38,38,45,45,46,46,47,47,48,48,49,49,50,50,51,51,52,52,53,53,54,54,55,55,56,56,57,57,58,58,59,59,61,61,62,62],"right_children":[2,4,6,8,10,12,14,16,18,20,22,24,26,28,30,32,34,36,38,40,42,44,46,48,50,52,54,56,58,60,62,64,66,68,70,72,74,76,78,-1,-1,-1,-1,-1,-1,80,82,84,86,88,90,92,94,96,98,100,102,104,106,108,-1,110,112,-1,-1,-1,-1,-1,-1,-1,-1,-1,-1,-1,-1,-1,-1,-1,-1,-1,-1,-1,-1,-1,-1,-1,-1,-1,-1,-1,-1,-1,-1,-1,-1,-1,-1,-1,-1,-1,-1,-1,-1,-1,-1,-1,-1,-1,-1,-1,-1,-1,-1],"split_conditions":[3.921569E-3,3.019608E-1,3.019608E-1,4.54902E-1,3.921569E-3,3.921569E-3,7.8823537E-1,3.019608E-1,5.294118E-1,1.9607844E-2,7.8431375E-2,3.921569E-3,3.137255E-2,2.3529413E-1,7.6470596E-1,3.921569E-3,9.411766E-2,3.137255E-2,7.5294125E-1,1.7254902E-1,3.921569E-3,8.235294E-2,5.8823533E-2,3.019608E-1,3.921569E-3,3.529412E-2,5.8823533E-2,3.921569E-3,3.529412E-2,7.9215693E-1,2.3137257E-1,2.3529414E-2,3.921569E-3,9.8039225E-2,1.0588236E-1,3.921569E-3,8.470589E-1,4.039216E-1,9.333334E-1,-1.6309084E-1,-2.8370023E-2,-7.557269E-2,1.4378266E-1,7.087999E-2,-1.445383E-1,3.921569E-3,9.411766E-2,3.019608E-1,2.4313727E-1,3.019608E-1,7.843138E-3,7.8431375E-2,6.666667E-2,7.843138E-3,7.058824E-2,3.921569E-3,3.921569E-3,2.3137257E-1,9.450981E-1,2.3529414E-2,-1.2382078E-1,2.784314E-1,6.666667E-1,-1.748294E-1,-5.203044E-2,-1.17423534E-1,5.1665634E-2,9.5757425E-2,-1.7191759E-1,8.2542226E-2,-1.1462895E-1,-1.1788414E-1,1.321535E-1,1.9021343E-1,-8.044855E-2,-1.0080069E-1,7.0342E-2,-1.6472688E-1,7.172343E-2,-1.0308518E-1,1.4615151E-1,1.774755E-1,5.994475E-3,-9.514763E-2,1.0039401E-1,4.3473378E-2,1.6646151E-1,3.301141E-2,1.6615988E-1,-1.0458825E-1,1.7747073E-1,-1.5124096E-1,5.630296E-2,-1.1032575E-2,1.2435844E-1,-9.0027854E-2,1.857512E-1,1.9165782E-2,1.3316773E-1,-6.3046888E-3,1.422995E-1,-1.0698425E-1,1.4126687E-1,-1.5369983E-1,7.172343E-2,1.8528956E-1,-7.974566E-2,2.640093E-2,2.0056641E-1,9.5757425E-2,-1.7124297E-1,2.640093E-2,1.5231188E-1],"split_indices":[4320,10848,3354,6648,11040,3993,9315,9075,5451,6951,7584,5022,3369,5277,4122,9933,7581,5865,7782,4494,10677,7203,7041,9522,4440,4710,10089,4554,3357,4674,2397,10026,9945,9879,2409,5655,6636,6246,5244,0,0,0,0,0,0,11208,2592,4362,7581,5793,4686,6372,6309,3375,4899,7524,3351,4470,8871,3363,0,7545,2589,0,0,0,0,0,0,0,0,0,0,0,0,0,0,0,0,0,0,0,0,0,0,0,0,0,0,0,0,0,0,0,0,0,0,0,0,0,0,0,0,0,0,0,0,0,0,0,0,0,0],"split_type":[0,0,0,0,0,0,0,0,0,0,0,0,0,0,0,0,0,0,0,0,0,0,0,0,0,0,0,0,0,0,0,0,0,0,0,0,0,0,0,0,0,0,0,0,0,0,0,0,0,0,0,0,0,0,0,0,0,0,0,0,0,0,0,0,0,0,0,0,0,0,0,0,0,0,0,0,0,0,0,0,0,0,0,0,0,0,0,0,0,0,0,0,0,0,0,0,0,0,0,0,0,0,0,0,0,0,0,0,0,0,0,0,0],"sum_hessian":[7.1412344E3,1.5817816E3,5.559453E3,1.5248615E3,5.692017E1,4.1394443E3,1.4200084E3,1.4210071E3,1.0385435E2,1.1234244E1,4.5685925E1,3.274907E3,8.645375E2,1.327638E3,9.237045E1,1.386056E3,3.495098E1,3.0706934E1,7.314741E1,7.489496E0,3.744748E0,4.2440476E0,4.144188E1,2.660269E3,6.14638E2,1.0285574E2,7.6168176E2,3.994398E2,9.281982E2,4.6185226E1,4.6185226E1,1.2966814E3,8.937465E1,9.985994E0,2.4964987E1,5.9915967E0,2.4715338E1,3.3203434E1,3.9943977E1,5.492297E0,1.9971989E0,1.4978992E0,2.2468488E0,1.2482493E0,2.9957983E0,8.488095E0,3.295378E1,2.3554465E3,3.0482248E2,3.5000912E2,2.6462885E2,3.2704132E1,7.015161E1,3.5924615E2,4.0243558E2,1.6102417E2,2.3841562E2,8.488095E0,9.197101E2,4.2939777E1,3.2454484E0,4.2190826E1,3.9943979E0,1.2572367E3,3.944468E1,6.790476E1,2.1469889E1,1.747549E0,8.238445E0,2.2218838E1,2.7461486E0,4.2440476E0,1.747549E0,2.2218838E1,2.4964986E0,1.52286415E1,1.797479E1,3.794678E1,1.9971989E0,4.4936976E0,3.9943979E0,2.8959385E1,3.9943979E0,2.189679E3,1.6576752E2,1.7250806E2,1.3231442E2,2.6912256E2,8.088656E1,7.9887958E0,2.5664008E2,2.7711136E1,4.992997E0,5.0678925E1,1.947269E1,5.741947E0,3.535042E2,6.6906166E1,3.3552942E2,9.0123604E1,7.0900566E1,4.7433476E0,2.3367227E2,6.4908967E0,1.9971989E0,9.1546606E2,4.2440476E0,1.2482493E0,4.169153E1,1.747549E0,4.044328E1,1.2482493E0,2.7461486E0],"tree_param":{"num_deleted":"0","num_feature":"12288","num_nodes":"113","size_leaf_vector":"1"}},{"base_weights":[-2.4389758E-4,-1.3277514E0,3.6960915E-1,-1.4431704E0,2.5957562E-2,3.641874E-2,1.3876092E0,-1.5001891E0,5.067013E-1,1.3448788E0,-7.175868E-1,-2.838949E-1,1.0269557E0,-4.1717514E-1,1.4499319E0,-1.5715127E0,-6.2088484E-1,6.629581E-2,1.5806353E0,-1.05224706E-1,1.6044327E0,9.800582E-2,-1.4228362E0,-5.525406E-1,1.1634991E0,-3.4908122E-1,1.1760191E0,-7.35817E-1,1.2146176E0,1.5301292E0,3.0013388E-1,-1.5923071E0,1.0047282E0,-1.0449249E0,6.624842E-1,-1.1907119E0,7.830902E-1,1.8004704E-1,-1.751895E-2,-1.3922869E-1,1.1291593E0,-1.0567421E-1,1.7235938E0,1.3378774E0,-3.5206473E-1,-1.5426867E0,6.6877335E-2,-7.6318043E-1,9.487333E-1,7.943982E-1,1.6357347E0,-5.9289056E-1,1.211727E0,1.5564697E0,8.7200654E-1,-1.0053034E0,5.548793E-1,1.6512108E-1,-2.1818895E-2,1.0946488E0,1.6926019E0,1.5862694E0,-8.68986E-1,-1.6208789E-1,-5.2889932E-2,1.915907E-1,-1.076136E-1,-1.308615E-1,7.8107804E-2,9.975756E-2,-1.235953E-1,-1.547879E-1,1.8807987E-2,1.1537498E-1,-1.1316832E-1,2.364312E-2,1.3987914E-1,1.8257554E-1,-6.541666E-2,-7.4831784E-2,1.7806032E-1,-9.680068E-2,7.9410695E-2,8.055117E-2,-1.6369261E-1,-9.1452934E-2,8.9911446E-2,6.1985154E-2,1.8067534E-1,4.9366545E-2,1.624944E-1,-2.925692E-2,1.6871099E-1,-8.269084E-2,1.2661922E-1,1.7098807E-1,-6.1143108E-2,-7.5411715E-2,1.6323258E-1,1.2228754E-2,1.18528284E-1,-1.205919E-1,8.9150704E-2,-1.2106385E-1,1.3005146E-1,-9.1487214E-2,1.14563E-1,-3.7643127E-3,1.7085813E-1,1.7791471E-1,-2.1016784E-2,9.529934E-2,-1.3286898E-1],"categories":[],"categories_nodes":[],"categories_segments":[],"categories_sizes":[],"default_left":[0,0,0,0,0,0,0,0,0,0,0,0,0,0,0,0,0,0,0,0,0,0,0,0,0,0,0,0,0,0,0,0,0,0,0,0,0,0,0,0,0,0,0,0,0,0,0,0,0,0,0,0,0,0,0,0,0,0,0,0,0,0,0,0,0,0,0,0,0,0,0,0,0,0,0,0,0,0,0,0,0,0,0,0,0,0,0,0,0,0,0,0,0,0,0,0,0,0,0,0,0,0,0,0,0,0,0,0,0,0,0,0,0],"id":1,"left_children":[1,3,5,7,9,11,13,15,17,19,21,23,25,27,29,31,33,35,37,39,41,43,45,47,49,51,53,55,57,59,61,63,65,67,69,71,73,-1,-1,-1,75,-1,77,79,81,83,-1,85,87,89,91,93,95,97,99,101,103,-1,-1,105,107,109,111,-1,-1,-1,-1,-1,-1,-1,-1,-1,-1,-1,-1,-1,-1,-1,-1,-1,-1,-1,-1,-1,-1,-1,-1,-1,-1,-1,-1,-1,-1,-1,-1,-1,-1,-1,-1,-1,-1,-1,-1,-1,-1,-1,-1,-1,-1,-1,-1,-1,-1],"loss_changes":[3.4901772E3,2.4205078E2,1.8857014E3,1.5944287E2,1.21266754E2,1.3296069E3,1.548042E2,8.600928E1,1.9427982E1,1.6945122E1,4.563712E1,1.2319702E3,2.10448E2,2.5090883E1,1.2175513E2,7.029224E1,5.8222286E1,2.8261745E1,4.934496E0,1.38137865E1,1.3829483E1,2.1461731E1,1.1681511E1,8.4556885E2,8.5166565E1,3.9098133E1,1.0552991E2,1.4316683E1,5.3521643E0,8.579126E1,1.3318918E2,3.7801758E1,2.2691002E1,3.9468987E1,1.832414E1,5.9109745E0,1.5443378E1,0E0,0E0,0E0,7.489381E-1,0E0,1.0091019E1,1.0777571E1,2.0810978E1,1.0277313E1,0E0,5.9040466E2,9.176837E1,6.922986E1,2.1959839E1,3.9289333E1,1.3719126E1,7.295093E1,1.2103415E2,1.3662983E1,1.1417288E1,0E0,0E0,3.5819824E1,2.4956543E1,1.49596405E1,4.0267994E1,0E0,0E0,0E0,0E0,0E0,0E0,0E0,0E0,0E0,0E0,0E0,0E0,0E0,0E0,0E0,0E0,0E0,0E0,0E0,0E0,0E0,0E0,0E0,0E0,0E0,0E0,0E0,0E0,0E0,0E0,0E0,0E0,0E0,0E0,0E0,0E0,0E0,0E0,0E0,0E0,0E0,0E0,0E0,0E0,0E0,0E0,0E0,0E0,0E0,0E0],"parents":[2147483647,0,0,1,1,2,2,3,3,4,4,5,5,6,6,7,7,8,8,9,9,10,10,11,11,12,12,13,13,14,14,15,15,16,16,17,17,18,18,19,19,20,20,21,21,22,22,23,23,24,24,25,25,26,26,27,27,28,28,29,29,30,30,31,31,32,32,33,33,34,34,35,35,36,36,40,40,42,42,43,43,44,44,45,45,47,47,48,48,49,49,50,50,51,51,52,52,53,53,54,54,55,55,56,56,59,59,60,60,61,61,62,62],"right_children":[2,4,6,8,10,12,14,16,18,20,22,24,26,28,30,32,34,36,38,40,42,44,46,48,50,52,54,56,58,60,62,64,66,68,70,72,74,-1,-1,-1,76,-1,78,80,82,84,-1,86,88,90,92,94,96,98,100,102,104,-1,-1,106,108,110,112,-1,-1,-1,-1,-1,-1,-1,-1,-1,-1,-1,-1,-1,-1,-1,-1,-1,-1,-1,-1,-1,-1,-1,-1,-1,-1,-1,-1,-1,-1,-1,-1,-1,-1,-1,-1,-1,-1,-1,-1,-1,-1,-1,-1,-1,-1,-1,-1,-1,-1],"split_conditions":[3.921569E-3,4.54902E-1,3.019608E-1,3.019608E-1,5.372549E-1,3.921569E-3,3.921569E-3,3.921569E-3,7.843138E-3,3.137255E-2,7.411765E-1,3.921569E-3,3.137255E-2,7.843138E-3,7.568628E-1,4.54902E-1,3.921569E-3,3.529412E-2,1.2941177E-1,1.1764707E-1,1.5686275E-2,4.8235297E-1,9.333334E-1,3.019608E-1,3.921569E-3,4.705883E-2,5.8823533E-2,2.5882354E-1,3.254902E-1,1.764706E-1,7.6470596E-1,7.843138E-3,4.54902E-1,3.019608E-1,1.2941177E-1,3.921569E-3,1.5294118E-1,1.8004704E-1,-1.751895E-2,-1.3922869E-1,4.0784317E-1,-1.0567421E-1,8.745099E-1,3.921569E-3,6.901961E-1,4.3137258E-1,6.6877335E-2,3.019608E-1,4.54902E-1,3.019608E-1,7.843138E-3,1.137255E-1,2.8235295E-1,3.921569E-3,3.921569E-3,4.54902E-1,7.450981E-2,1.6512108E-1,-2.1818895E-2,1.5686275E-2,3.529412E-2,7.9215693E-1,7.803922E-1,-1.6208789E-1,-5.2889932E-2,1.915907E-1,-1.076136E-1,-1.308615E-1,7.8107804E-2,9.975756E-2,-1.235953E-1,-1.547879E-1,1.8807987E-2,1.1537498E-1,-1.1316832E-1,2.364312E-2,1.3987914E-1,1.8257554E-1,-6.541666E-2,-7.4831784E-2,1.7806032E-1,-9.680068E-2,7.9410695E-2,8.055117E-2,-1.6369261E-1,-9.1452934E-2,8.9911446E-2,6.1985154E-2,1.8067534E-1,4.9366545E-2,1.624944E-1,-2.925692E-2,1.6871099E-1,-8.269084E-2,1.2661922E-1,1.7098807E-1,-6.1143108E-2,-7.5411715E-2,1.6323258E-1,1.2228754E-2,1.18528284E-1,-1.205919E-1,8.9150704E-2,-1.2106385E-1,1.3005146E-1,-9.1487214E-2,1.14563E-1,-3.7643127E-3,1.7085813E-1,1.7791471E-1,-2.1016784E-2,9.529934E-2,-1.3286898E-1],"split_indices":[4314,6648,3369,10848,5451,4377,3375,10311,10812,5865,7782,4638,4134,6171,9702,6969,11451,6663,2778,5904,7221,5316,5244,5811,4629,4197,10089,10656,7716,5283,3558,9444,10284,10299,3213,4710,4461,0,0,0,4935,0,6414,6585,7617,6615,0,5709,5277,4641,4302,8292,6846,3564,4767,3711,4131,0,0,3936,3552,3936,7602,0,0,0,0,0,0,0,0,0,0,0,0,0,0,0,0,0,0,0,0,0,0,0,0,0,0,0,0,0,0,0,0,0,0,0,0,0,0,0,0,0,0,0,0,0,0,0,0,0,0],"split_type":[0,0,0,0,0,0,0,0,0,0,0,0,0,0,0,0,0,0,0,0,0,0,0,0,0,0,0,0,0,0,0,0,0,0,0,0,0,0,0,0,0,0,0,0,0,0,0,0,0,0,0,0,0,0,0,0,0,0,0,0,0,0,0,0,0,0,0,0,0,0,0,0,0,0,0,0,0,0,0,0,0,0,0,0,0,0,0,0,0,0,0,0,0,0,0,0,0,0,0,0,0,0,0,0,0,0,0,0,0,0,0,0,0],"sum_hessian":[7.106555E3,1.5479464E3,5.558609E3,1.4262742E3,1.2167215E2,4.1886904E3,1.3699183E3,1.3859758E3,4.029843E1,4.3572754E1,7.809939E1,3.1656997E3,1.0229908E3,4.5536785E1,1.3243816E3,1.2812609E3,1.0471489E2,2.9331657E1,1.0966774E1,6.705325E0,3.6867428E1,3.6615765E1,4.1483627E1,2.6706313E3,4.950683E2,9.9856026E1,9.2313477E2,3.855683E1,6.979957E0,1.237721E3,8.6660706E1,1.2713807E3,9.88017E0,7.884829E1,2.58666E1,1.0411809E1,1.8919847E1,9.723886E0,1.242889E0,3.2199945E0,3.4853303E0,1.2428665E0,3.562456E1,9.2262745E0,2.7389488E1,3.9483635E1,1.999995E0,2.3424587E3,3.2817258E2,2.7938348E2,2.1568481E2,8.690153E1,1.2954497E1,4.0819156E2,5.149432E2,3.207993E1,6.4769E0,5.2329764E0,1.7469809E0,3.3840945E2,8.9931146E2,4.109536E1,4.5565342E1,1.2376045E3,3.377625E1,6.9264545E0,2.953715E0,6.914633E1,9.701963E0,2.2389227E1,3.4773731E0,8.1722145E0,2.239594E0,1.618435E1,2.7354994E0,1.2438655E0,2.2414649E0,3.4379585E1,1.2449791E0,1.4943597E0,7.7319145E0,1.7916676E1,9.472814E0,1.232229E0,3.8251404E1,2.1473926E3,1.950663E2,2.384835E2,8.968906E1,2.0628429E2,7.30992E1,5.475452E0,2.1020937E2,7.767869E1,9.22284E0,1.0223261E1,2.7312367E0,1.2690681E1,3.9550085E2,1.521691E2,3.627741E2,2.9340933E1,2.7389975E0,1.7380072E0,4.738893E0,7.9536924E0,3.3045575E2,8.217023E0,8.910944E2,3.7119576E1,3.9757833E0,8.964113E0,3.660123E1],"tree_param":{"num_deleted":"0","num_feature":"12288","num_nodes":"113","size_leaf_vector":"1"}},{"base_weights":[-2.3193352E-4,-1.3276207E0,3.1194225E-1,-1.4212469E0,-1.5974785E-1,1.9536328E-2,1.2942884E0,-1.4608703E0,3.185659E-1,-5.3245515E-1,1.5189052E0,-2.8255472E-1,8.5567725E-1,-3.962586E-1,1.3511931E0,-1.4793925E0,6.6655844E-1,7.298228E-1,-1.1267353E0,2.813768E-2,-1.2406653E0,1.7399974E-1,-4.1314762E-2,-5.368492E-1,8.9564544E-1,-1.7893901E-1,9.9691796E-1,-7.363389E-1,9.943476E-1,1.4066502E0,3.9878383E-1,-1.5012633E0,2.0305991E-2,1.4166594E0,-5.5400294E-1,-9.8759316E-2,9.8555905E-1,3.3675954E-2,-1.5192638E-1,-1.0492764E0,5.7686037E-1,-1.3576262E0,1.16572134E-1,-7.555882E-1,8.4638125E-1,-8.448781E-1,1.0158421E0,-3.9621592E-1,1.2899593E0,1.0584731E0,-9.01901E-1,-1.0056261E0,1.0153463E0,-9.525337E-2,1.5993638E-1,1.096982E0,1.5747796E0,1.2772721E0,-9.4034696E-1,-1.532444E-1,-5.36016E-2,8.552255E-2,-1.1568427E-1,-9.136766E-3,1.7422798E-1,8.30572E-2,-1.3822776E-1,1.20592356E-1,-1.08366966E-1,-1.2383083E-1,6.9630474E-2,9.230813E-2,-1.4149962E-1,3.344547E-2,-1.4283404E-1,-8.836045E-2,7.264238E-2,-6.041185E-2,1.1175827E-1,-1.106982E-1,1.4813147E-1,6.69199E-2,1.451463E-1,-6.0376454E-2,9.9963464E-2,1.6577463E-1,-3.301578E-2,1.1017161E-1,-1.14678204E-1,-1.4783086E-1,1.5605728E-1,-1.3629301E-1,4.7266595E-3,-2.1456802E-2,1.450784E-1,-1.8640334E-2,1.1654788E-1,-9.83808E-3,1.5912195E-1,1.4888228E-1,-1.1989876E-1,3.1536993E-2,-1.5690564E-1],"categories":[],"categories_nodes":[],"categories_segments":[],"categories_sizes":[],"default_left":[0,0,0,0,0,0,0,0,0,0,0,0,0,0,0,0,0,0,0,0,0,0,0,0,0,0,0,0,0,0,0,0,0,0,0,0,0,0,0,0,0,0,0,0,0,0,0,0,0,0,0,0,0,0,0,0,0,0,0,0,0,0,0,0,0,0,0,0,0,0,0,0,0,0,0,0,0,0,0,0,0,0,0,0,0,0,0,0,0,0,0,0,0,0,0,0,0,0,0,0,0,0,0],"id":2,"left_children":[1,3,5,7,9,11,13,15,17,19,21,23,25,27,29,31,33,35,37,39,41,-1,-1,43,45,47,49,51,53,55,57,59,61,63,65,-1,67,-1,-1,69,71,73,-1,75,77,79,81,83,85,87,89,91,93,-1,-1,95,97,99,101,-1,-1,-1,-1,-1,-1,-1,-1,-1,-1,-1,-1,-1,-1,-1,-1,-1,-1,-1,-1,-1,-1,-1,-1,-1,-1,-1,-1,-1,-1,-1,-1,-1,-1,-1,-1,-1,-1,-1,-1,-1,-1,-1,-1],"loss_changes":[2.9120217E3,1.4607837E2,1.6342314E3,8.585156E1,6.3644447E1,1.1079525E3,1.2608057E2,4.8713135E1,1.770389E1,3.295806E1,8.624386E0,9.658979E2,1.7029547E2,2.1195877E1,6.613599E1,3.942505E1,1.0987268E1,1.0950765E1,4.351619E0,2.8548365E1,1.1901054E1,0E0,0E0,8.027019E2,1.2060382E2,4.541092E1,1.2069623E2,1.7692526E1,1.2039989E1,6.037964E1,8.4583626E1,3.480786E1,1.8926298E1,3.6863976E0,6.83682E0,0E0,1.0551102E1,0E0,0E0,6.242008E0,2.3347258E1,4.716339E0,0E0,4.349973E2,1.4324728E2,2.451597E1,7.994678E1,3.6329987E1,1.1489046E1,9.593469E1,4.873216E1,1.177787E1,3.0998573E0,0E0,0E0,3.7407288E1,2.135962E1,2.4428627E1,2.3116547E1,0E0,0E0,0E0,0E0,0E0,0E0,0E0,0E0,0E0,0E0,0E0,0E0,0E0,0E0,0E0,0E0,0E0,0E0,0E0,0E0,0E0,0E0,0E0,0E0,0E0,0E0,0E0,0E0,0E0,0E0,0E0,0E0,0E0,0E0,0E0,0E0,0E0,0E0,0E0,0E0,0E0,0E0,0E0,0E0],"parents":[2147483647,0,0,1,1,2,2,3,3,4,4,5,5,6,6,7,7,8,8,9,9,10,10,11,11,12,12,13,13,14,14,15,15,16,16,17,17,18,18,19,19,20,20,23,23,24,24,25,25,26,26,27,27,28,28,29,29,30,30,31,31,32,32,33,33,34,34,36,36,39,39,40,40,41,41,43,43,44,44,45,45,46,46,47,47,48,48,49,49,50,50,51,51,52,52,55,55,56,56,57,57,58,58],"right_children":[2,4,6,8,10,12,14,16,18,20,22,24,26,28,30,32,34,36,38,40,42,-1,-1,44,46,48,50,52,54,56,58,60,62,64,66,-1,68,-1,-1,70,72,74,-1,76,78,80,82,84,86,88,90,92,94,-1,-1,96,98,100,102,-1,-1,-1,-1,-1,-1,-1,-1,-1,-1,-1,-1,-1,-1,-1,-1,-1,-1,-1,-1,-1,-1,-1,-1,-1,-1,-1,-1,-1,-1,-1,-1,-1,-1,-1,-1,-1,-1,-1,-1,-1,-1,-1,-1],"split_conditions":[3.921569E-3,3.2156864E-1,3.019608E-1,3.019608E-1,3.921569E-3,3.921569E-3,3.921569E-3,3.019608E-1,1.5686275E-2,1.3333334E-1,4.3137256E-2,3.921569E-3,4.705883E-2,3.921569E-3,7.568628E-1,4.54902E-1,2.8235295E-1,7.8431375E-2,1.137255E-1,3.921569E-3,4.039216E-1,1.7399974E-1,-4.1314762E-2,3.019608E-1,3.921569E-3,3.019608E-1,2.7450982E-1,3.1764707E-1,9.8039225E-2,3.529412E-1,8.078432E-1,1.9607844E-2,7.843138E-1,9.8039225E-2,1.3333334E-1,-9.8759316E-2,2.8235295E-1,3.3675954E-2,-1.5192638E-1,6.9411767E-1,8.6274517E-1,1.1764707E-2,1.16572134E-1,3.019608E-1,3.921569E-3,4.039216E-1,3.921569E-3,4.705883E-2,3.254902E-1,2.7058825E-1,5.8823533E-2,4.54902E-1,2.784314E-1,-9.525337E-2,1.5993638E-1,4.705883E-2,3.137255E-2,8.5098046E-1,7.725491E-1,-1.532444E-1,-5.36016E-2,8.552255E-2,-1.1568427E-1,-9.136766E-3,1.7422798E-1,8.30572E-2,-1.3822776E-1,1.20592356E-1,-1.08366966E-1,-1.2383083E-1,6.9630474E-2,9.230813E-2,-1.4149962E-1,3.344547E-2,-1.4283404E-1,-8.836045E-2,7.264238E-2,-6.041185E-2,1.1175827E-1,-1.106982E-1,1.4813147E-1,6.69199E-2,1.451463E-1,-6.0376454E-2,9.9963464E-2,1.6577463E-1,-3.301578E-2,1.1017161E-1,-1.14678204E-1,-1.4783086E-1,1.5605728E-1,-1.3629301E-1,4.7266595E-3,-2.1456802E-2,1.450784E-1,-1.8640334E-2,1.1654788E-1,-9.83808E-3,1.5912195E-1,1.4888228E-1,-1.1989876E-1,3.1536993E-2,-1.5690564E-1],"split_indices":[4701,7821,3167,8880,8217,4761,2970,8217,2013,4281,2781,5022,4899,8601,9702,5856,6096,7194,5439,8400,3891,0,0,9504,4113,4761,9606,9072,7029,4315,3930,9834,6807,7776,7044,0,3549,0,0,6231,6063,4914,0,5514,9888,7788,4440,5160,2382,9795,9792,6219,10248,0,0,5094,5088,9078,7398,0,0,0,0,0,0,0,0,0,0,0,0,0,0,0,0,0,0,0,0,0,0,0,0,0,0,0,0,0,0,0,0,0,0,0,0,0,0,0,0,0,0,0,0],"split_type":[0,0,0,0,0,0,0,0,0,0,0,0,0,0,0,0,0,0,0,0,0,0,0,0,0,0,0,0,0,0,0,0,0,0,0,0,0,0,0,0,0,0,0,0,0,0,0,0,0,0,0,0,0,0,0,0,0,0,0,0,0,0,0,0,0,0,0,0,0,0,0,0,0,0,0,0,0,0,0,0,0,0,0,0,0,0,0,0,0,0,0,0,0,0,0,0,0,0,0,0,0,0,0],"sum_hessian":[7.025478E3,1.3370376E3,5.6884404E3,1.2376044E3,9.9433266E1,4.3843975E3,1.3040432E3,1.2102029E3,2.7401497E1,8.192619E1,1.7507069E1,3.221248E3,1.1631492E3,4.2271152E1,1.2617721E3,1.2000593E3,1.0143574E1,2.1717012E1,5.684485E0,4.6264893E1,3.5661304E1,1.5798582E1,1.708487E0,2.6498643E3,5.713838E2,1.3968225E2,1.023467E3,3.43429E1,7.9282537E0,1.1918933E3,6.9878784E1,1.1828088E3,1.7250399E1,6.1830764E0,3.960497E0,2.4437897E0,1.9273222E1,1.2322533E0,4.4522314E0,1.5303782E1,3.0961113E1,3.442397E1,1.2373319E0,2.2884336E3,3.614307E2,3.652012E1,5.348637E2,1.2231927E2,1.736299E1,9.917591E2,3.1707859E1,3.0135994E1,4.2069063E0,1.7434887E0,6.1847653E0,4.2205627E2,7.6983704E2,4.2224876E1,2.7653908E1,1.1452266E3,3.7582294E1,1.025224E1,6.9981575E0,1.2257473E0,4.9573293E0,1.4813849E0,2.4791121E0,1.7795305E1,1.4779173E0,1.4070651E1,1.233131E0,2.6833529E1,4.127584E0,1.2312939E0,3.3192677E1,2.1068477E3,1.81586E2,5.6738995E1,3.0469168E2,3.3292953E1,3.2271633E0,2.9926297E2,2.3560071E2,1.0697991E2,1.5339357E1,1.4131692E1,3.2312982E0,9.7317645E2,1.8582632E1,2.6017448E1,5.6904106E0,2.2280529E1,7.855465E0,1.2326018E0,2.9743044E0,2.129745E1,4.0075882E2,7.442001E0,7.62395E2,3.926884E1,2.9560366E0,9.392572E0,1.8261335E1],"tree_param":{"num_deleted":"0","num_feature":"12288","num_nodes":"103","size_leaf_vector":"1"}},{"base_weights":[-3.4249068E-4,-1.1958859E0,2.966378E-1,-1.289766E0,-4.4079877E-2,3.5241544E-2,1.2147744E0,-1.3230798E0,7.4730843E-1,-6.2452215E-1,1.3643472E0,-1.8509214E-1,9.302051E-1,-9.91468E-1,1.2660605E0,-1.3418795E0,9.2066354E-1,-8.553602E-1,1.1580981E0,7.13698E-1,-1.0274917E0,1.6225798E0,-1.20321035E-1,-3.7970927E-1,1.0243202E0,-3.7010017E-1,1.0641687E0,-1.416063E0,-1.7116226E-1,9.355579E-1,1.421848E0,-1.393129E0,-6.4191574E-1,1.7128976E-1,-6.724687E-1,-1.2923782E-1,2.6670625E-2,-1.0058153E-1,1.4186908E0,1.1337243E0,-1.0783094E-1,-1.1527107E0,7.545887E-1,1.6827081E0,1.333943E-2,-5.5933964E-1,9.768923E-1,6.099054E-1,1.4952573E0,-5.7325613E-1,1.1909248E0,1.4156107E0,8.168024E-1,-1.6295037E0,1.937358E-2,-1.1666843E0,1.0310694E0,1.0561206E0,-5.18049E-1,-1.0133616E0,1.442968E0,-1.4078535E-1,6.318428E-2,-9.471796E-2,8.725541E-2,-1.1716507E-1,3.5164442E-2,1.6163445E-1,-1.3124085E-2,-3.58998E-3,1.5158455E-1,-1.2475045E-1,1.1205274E-1,-4.633628E-2,1.3414884E-1,1.7136896E-1,5.5083137E-2,-6.984285E-2,9.117856E-2,-9.995063E-2,1.0870291E-1,7.343369E-2,-1.1247398E-1,-4.783003E-2,1.5397418E-1,-7.496961E-2,8.935543E-2,-7.243826E-2,1.5619902E-1,-4.883307E-2,1.4940497E-1,5.129944E-2,1.4208387E-1,-1.7386417E-1,-1.6697077E-2,9.32942E-2,-9.1075465E-2,-1.54446E-1,2.427618E-2,1.4838037E-1,-2.8337156E-2,1.204556E-1,-3.2742482E-3,1.2220537E-1,-1.3779181E-1,7.354998E-2,-1.4661902E-1,4.8877414E-2,1.4831242E-1],"categories":[],"categories_nodes":[],"categories_segments":[],"categories_sizes":[],"default_left":[0,0,0,0,0,0,0,0,0,0,0,0,0,0,0,0,0,0,0,0,0,0,0,0,0,0,0,0,0,0,0,0,0,0,0,0,0,0,0,0,0,0,0,0,0,0,0,0,0,0,0,0,0,0,0,0,0,0,0,0,0,0,0,0,0,0,0,0,0,0,0,0,0,0,0,0,0,0,0,0,0,0,0,0,0,0,0,0,0,0,0,0,0,0,0,0,0,0,0,0,0,0,0,0,0,0,0,0,0],"id":3,"left_children":[1,3,5,7,9,11,13,15,17,19,21,23,25,27,29,31,33,35,37,39,41,43,-1,45,47,49,51,53,55,57,59,61,63,-1,65,-1,-1,-1,67,69,-1,71,73,75,-1,77,79,81,83,85,87,89,91,93,95,97,99,101,103,105,107,-1,-1,-1,-1,-1,-1,-1,-1,-1,-1,-1,-1,-1,-1,-1,-1,-1,-1,-1,-1,-1,-1,-1,-1,-1,-1,-1,-1,-1,-1,-1,-1,-1,-1,-1,-1,-1,-1,-1,-1,-1,-1,-1,-1,-1,-1,-1,-1],"loss_changes":[2.4561614E3,1.487843E2,1.329844E3,8.73584E1,8.6504906E1,8.509091E2,1.4019934E2,5.4071777E1,1.4893659E1,4.1113956E1,2.2434174E1,8.1543823E2,1.488902E2,9.669319E0,6.048181E1,4.368091E1,1.5036543E1,2.7394524E0,1.1145233E1,1.4710825E1,1.3803867E1,2.3269577E0,0E0,7.275973E2,9.2817444E1,2.6169064E1,6.605438E1,5.7345734E0,1.4180868E1,6.846008E1,4.332715E1,3.538623E1,4.087522E1,0E0,2.6469257E0,0E0,0E0,0E0,5.051403E0,6.7606792E0,0E0,1.3153099E1,3.773689E0,1.3473511E-2,0E0,5.3986835E2,7.710437E1,5.6330284E1,2.0411865E1,1.9248337E1,7.93966E0,4.8221924E1,8.297171E1,2.2981148E0,3.7368925E0,3.7830715E0,3.6593347E0,5.792871E1,4.709574E1,7.086233E0,3.021228E1,0E0,0E0,0E0,0E0,0E0,0E0,0E0,0E0,0E0,0E0,0E0,0E0,0E0,0E0,0E0,0E0,0E0,0E0,0E0,0E0,0E0,0E0,0E0,0E0,0E0,0E0,0E0,0E0,0E0,0E0,0E0,0E0,0E0,0E0,0E0,0E0,0E0,0E0,0E0,0E0,0E0,0E0,0E0,0E0,0E0,0E0,0E0,0E0],"parents":[2147483647,0,0,1,1,2,2,3,3,4,4,5,5,6,6,7,7,8,8,9,9,10,10,11,11,12,12,13,13,14,14,15,15,16,16,17,17,18,18,19,19,20,20,21,21,23,23,24,24,25,25,26,26,27,27,28,28,29,29,30,30,31,31,32,32,34,34,38,38,39,39,41,41,42,42,43,43,45,45,46,46,47,47,48,48,49,49,50,50,51,51,52,52,53,53,54,54,55,55,56,56,57,57,58,58,59,59,60,60],"right_children":[2,4,6,8,10,12,14,16,18,20,22,24,26,28,30,32,34,36,38,40,42,44,-1,46,48,50,52,54,56,58,60,62,64,-1,66,-1,-1,-1,68,70,-1,72,74,76,-1,78,80,82,84,86,88,90,92,94,96,98,100,102,104,106,108,-1,-1,-1,-1,-1,-1,-1,-1,-1,-1,-1,-1,-1,-1,-1,-1,-1,-1,-1,-1,-1,-1,-1,-1,-1,-1,-1,-1,-1,-1,-1,-1,-1,-1,-1,-1,-1,-1,-1,-1,-1,-1,-1,-1,-1,-1,-1,-1],"split_conditions":[3.921569E-3,4.54902E-1,3.019608E-1,3.019608E-1,3.921569E-3,3.921569E-3,4.705883E-2,4.54902E-1,3.921569E-3,5.529412E-1,8.6666673E-1,3.019608E-1,3.137255E-2,3.529412E-2,3.921569E-3,3.921569E-3,4.3921572E-1,2.1176472E-1,4.705883E-2,4.8235297E-1,9.215687E-1,8.588236E-1,-1.20321035E-1,3.921569E-3,3.921569E-3,5.4901965E-2,2.7450982E-2,4.54902E-1,1.1764707E-2,7.8823537E-1,1.1764707E-2,3.019608E-1,1.5686275E-2,1.7128976E-1,7.176471E-1,-1.2923782E-1,2.6670625E-2,-1.0058153E-1,3.2156864E-1,3.921569E-3,-1.0783094E-1,3.921569E-3,2.0392159E-1,5.686275E-1,1.333943E-2,3.019608E-1,7.843138E-3,8.117648E-1,3.921569E-3,3.137255E-2,3.921569E-3,7.843138E-3,8.627451E-2,1.9607845E-1,6.509804E-1,7.450981E-2,3.921569E-3,3.0588236E-1,6.745098E-1,1.0196079E-1,9.019608E-2,-1.4078535E-1,6.318428E-2,-9.471796E-2,8.725541E-2,-1.1716507E-1,3.5164442E-2,1.6163445E-1,-1.3124085E-2,-3.58998E-3,1.5158455E-1,-1.2475045E-1,1.1205274E-1,-4.633628E-2,1.3414884E-1,1.7136896E-1,5.5083137E-2,-6.984285E-2,9.117856E-2,-9.995063E-2,1.0870291E-1,7.343369E-2,-1.1247398E-1,-4.783003E-2,1.5397418E-1,-7.496961E-2,8.935543E-2,-7.243826E-2,1.5619902E-1,-4.883307E-2,1.4940497E-1,5.129944E-2,1.4208387E-1,-1.7386417E-1,-1.6697077E-2,9.32942E-2,-9.1075465E-2,-1.54446E-1,2.427618E-2,1.4838037E-1,-2.8337156E-2,1.204556E-1,-3.2742482E-3,1.2220537E-1,-1.3779181E-1,7.354998E-2,-1.4661902E-1,4.8877414E-2,1.4831242E-1],"split_indices":[4512,6651,2981,11022,5667,3993,2976,6777,11016,6627,5841,9087,4140,2796,2406,9645,4911,6621,8895,6045,5625,8586,0,4635,8877,1680,9732,3357,3978,7200,4893,9750,9828,0,5682,0,0,0,6618,5655,0,8217,5616,5991,0,6285,4686,4323,5088,10419,2817,3558,5160,10656,3339,3129,1593,2595,8004,7182,4134,0,0,0,0,0,0,0,0,0,0,0,0,0,0,0,0,0,0,0,0,0,0,0,0,0,0,0,0,0,0,0,0,0,0,0,0,0,0,0,0,0,0,0,0,0,0,0,0],"split_type":[0,0,0,0,0,0,0,0,0,0,0,0,0,0,0,0,0,0,0,0,0,0,0,0,0,0,0,0,0,0,0,0,0,0,0,0,0,0,0,0,0,0,0,0,0,0,0,0,0,0,0,0,0,0,0,0,0,0,0,0,0,0,0,0,0,0,0,0,0,0,0,0,0,0,0,0,0,0,0,0,0,0,0,0,0,0,0,0,0,0,0,0,0,0,0,0,0,0,0,0,0,0,0,0,0,0,0,0,0],"sum_hessian":[6.9157354E3,1.3754812E3,5.5402544E3,1.2717085E3,1.0377274E2,4.313287E3,1.2269675E3,1.2515907E3,2.0117733E1,7.3881294E1,2.9891447E1,3.4618076E3,8.514793E2,2.745754E1,1.19951E3,1.2415897E3,1.0000954E1,3.8836598E0,1.6234072E1,1.6920145E1,5.696115E1,2.7494253E1,2.3971941E0,2.9825461E3,4.7926154E2,7.936526E1,7.721141E2,1.7614113E1,9.843428E0,3.865186E2,8.129914E2,1.1559628E3,8.562695E1,6.6292024E0,3.3717508E0,2.6858156E0,1.1978444E0,1.4375123E0,1.479656E1,1.4004899E1,2.9152462E0,5.355149E1,3.4096615E0,2.6302303E1,1.19195E0,2.6343184E3,3.4822775E2,2.5614993E2,2.2311159E2,7.0785774E1,8.579482E0,3.1700757E2,4.5510648E2,1.5216337E1,2.3977752E0,5.4007998E0,4.4426274E0,3.5716833E2,2.9350231E1,6.586299E0,8.064051E2,1.1479205E3,8.042272E0,7.157461E1,1.4052342E1,2.169978E0,1.201773E0,1.3085052E1,1.711508E0,3.6718578E0,1.0333041E1,5.184095E1,1.7105407E0,1.1771973E0,2.2324643E0,2.5101213E1,1.2010891E0,2.407248E3,2.2707022E2,1.7954802E1,3.3027295E2,2.3954343E2,1.6606518E1,4.703169E0,2.1840842E2,6.3621727E1,7.1640477E0,1.2378702E0,7.3416123E0,1.2336603E1,3.0467096E2,3.0403656E2,1.5106993E2,1.3984026E1,1.2323112E0,1.2081296E0,1.1896455E0,4.183656E0,1.2171435E0,3.2086287E0,1.233999E0,3.1422632E2,4.2942036E1,9.567477E0,1.9782753E1,1.2262367E0,5.360062E0,3.3098045E1,7.73307E2],"tree_param":{"num_deleted":"0","num_feature":"12288","num_nodes":"109","size_leaf_vector":"1"}},{"base_weights":[-2.4144255E-4,-1.0775819E0,2.8756174E-1,-1.1467572E0,6.2356704E-1,1.3092741E-2,1.0587466E0,-1.230768E0,-4.3531995E-2,-4.1936898E-1,9.236229E-1,-2.7588898E-1,7.7123886E-1,1.1569493E0,1.8888247E-1,-1.3013638E0,-3.684496E-1,6.3417757E-1,-1.0905381E0,-9.338817E-1,8.3746827E-1,-4.0239385E-1,1.112545E0,-5.311543E-1,8.0117387E-1,-2.5301296E-1,8.9934784E-1,6.657629E-1,1.3617213E0,1.2476108E0,-1.0631951E0,-1.3363472E0,-5.3209636E-2,-1.4207529E0,5.5839326E-2,-2.433299E-1,1.4612356E0,-1.1859579E0,1.0104015E-1,3.757641E-2,-1.1560779E0,1.302544E-1,-2.1955548E-2,9.080849E-2,-1.0956978E-1,6.537663E-4,1.3616594E0,-6.902321E-1,7.8548044E-1,-1.2092366E0,8.7404406E-1,-3.9427587E-1,1.6639938E0,1.1736854E0,3.7883228E-1,-1.2917886E0,7.4729216E-1,-6.6556823E-1,1.3825608E0,1.409637E0,-1.1061172E0,-1.344203E0,1.1297299E0,-1.3509904E-1,7.367244E-2,1.1139627E-1,-4.684655E-2,-1.5145923E-1,3.759054E-2,4.396284E-2,-1.09246925E-1,4.6536017E-2,-8.542285E-2,1.7409518E-1,2.2270225E-2,-6.36767E-2,-1.462923E-1,-1.4015342E-1,2.0754758E-2,-9.117665E-2,8.1608675E-2,1.4528696E-1,-3.2188054E-2,-8.186796E-2,8.900147E-2,-6.990063E-2,9.095275E-2,-1.4596371E-1,1.1072054E-1,9.3377426E-2,-1.4616533E-1,-5.8211435E-2,1.1208717E-1,1.7674033E-1,5.4461803E-2,-1.0116606E-1,1.21093966E-1,-1.9193018E-2,9.175193E-2,-1.5127529E-1,2.7705992E-2,5.2501064E-2,1.2832145E-1,-1.3139395E-1,7.599595E-2,1.4186867E-1,6.123659E-2,1.4752275E-1,-5.1940907E-2,1.4717388E-2,-1.472102E-1,-1.4854977E-1,9.314495E-2,1.4118144E-1,-2.7276462E-2],"categories":[],"categories_nodes":[],"categories_segments":[],"categories_sizes":[],"default_left":[0,0,0,0,0,0,0,0,0,0,0,0,0,0,0,0,0,0,0,0,0,0,0,0,0,0,0,0,0,0,0,0,0,0,0,0,0,0,0,0,0,0,0,0,0,0,0,0,0,0,0,0,0,0,0,0,0,0,0,0,0,0,0,0,0,0,0,0,0,0,0,0,0,0,0,0,0,0,0,0,0,0,0,0,0,0,0,0,0,0,0,0,0,0,0,0,0,0,0,0,0,0,0,0,0,0,0,0,0,0,0,0,0,0,0],"id":4,"left_children":[1,3,5,7,9,11,13,15,17,19,21,23,25,27,29,31,33,35,37,39,41,43,45,47,49,51,53,55,57,59,61,63,65,67,69,71,73,75,-1,-1,77,-1,-1,-1,-1,79,81,83,85,87,89,91,93,95,97,99,101,103,105,107,109,111,113,-1,-1,-1,-1,-1,-1,-1,-1,-1,-1,-1,-1,-1,-1,-1,-1,-1,-1,-1,-1,-1,-1,-1,-1,-1,-1,-1,-1,-1,-1,-1,-1,-1,-1,-1,-1,-1,-1,-1,-1,-1,-1,-1,-1,-1,-1,-1,-1,-1,-1,-1,-1],"loss_changes":[2.103943E3,1.6905884E2,1.1334609E3,1.273855E2,1.8082949E1,8.657093E2,1.1985217E2,7.729993E1,7.046607E1,9.396593E0,1.1526646E1,7.869998E2,1.4331573E2,1.2610901E2,1.9192537E2,5.147888E1,4.386978E1,4.4137825E1,9.018082E0,3.3225431E0,2.447352E0,6.673036E0,1.0794842E1,4.8507684E2,8.1416504E1,3.3696636E1,1.3799274E2,6.057756E1,3.853357E1,3.1445442E1,4.244586E1,3.585498E1,1.6627132E1,5.327202E0,3.170841E1,1.3441069E1,1.0420792E1,4.813896E0,0E0,0E0,3.2131062E0,0E0,0E0,0E0,0E0,6.796239E0,5.357025E0,4.1978833E2,4.6643845E1,1.2988621E1,7.529581E1,3.3223785E1,2.8913498E-2,5.287274E1,1.0350859E2,5.723316E0,4.2117996E1,9.99522E0,2.3659912E1,1.009874E1,2.7887216E0,2.0459946E1,3.5846205E0,0E0,0E0,0E0,0E0,0E0,0E0,0E0,0E0,0E0,0E0,0E0,0E0,0E0,0E0,0E0,0E0,0E0,0E0,0E0,0E0,0E0,0E0,0E0,0E0,0E0,0E0,0E0,0E0,0E0,0E0,0E0,0E0,0E0,0E0,0E0,0E0,0E0,0E0,0E0,0E0,0E0,0E0,0E0,0E0,0E0,0E0,0E0,0E0,0E0,0E0,0E0,0E0],"parents":[2147483647,0,0,1,1,2,2,3,3,4,4,5,5,6,6,7,7,8,8,9,9,10,10,11,11,12,12,13,13,14,14,15,15,16,16,17,17,18,18,19,19,20,20,21,21,22,22,23,23,24,24,25,25,26,26,27,27,28,28,29,29,30,30,31,31,32,32,33,33,34,34,35,35,36,36,37,37,40,40,45,45,46,46,47,47,48,48,49,49,50,50,51,51,52,52,53,53,54,54,55,55,56,56,57,57,58,58,59,59,60,60,61,61,62,62],"right_children":[2,4,6,8,10,12,14,16,18,20,22,24,26,28,30,32,34,36,38,40,42,44,46,48,50,52,54,56,58,60,62,64,66,68,70,72,74,76,-1,-1,78,-1,-1,-1,-1,80,82,84,86,88,90,92,94,96,98,100,102,104,106,108,110,112,114,-1,-1,-1,-1,-1,-1,-1,-1,-1,-1,-1,-1,-1,-1,-1,-1,-1,-1,-1,-1,-1,-1,-1,-1,-1,-1,-1,-1,-1,-1,-1,-1,-1,-1,-1,-1,-1,-1,-1,-1,-1,-1,-1,-1,-1,-1,-1,-1,-1,-1,-1,-1],"split_conditions":[3.921569E-3,3.019608E-1,3.019608E-1,4.5882356E-1,3.921569E-3,3.921569E-3,7.7647066E-1,3.921569E-3,7.843138E-1,1.9607844E-2,9.8039225E-2,3.921569E-3,3.137255E-2,2.0392159E-1,7.6470596E-1,3.019608E-1,3.921569E-3,3.921569E-3,3.921569E-3,1.0980393E-1,1.764706E-1,9.8039225E-2,3.921569E-3,3.019608E-1,7.843138E-3,3.137255E-2,1.137255E-1,3.137255E-2,2.7450982E-2,8.54902E-1,1.1764707E-1,3.019608E-1,3.019608E-1,3.1764707E-1,3.9215688E-2,3.529412E-1,7.4509805E-1,7.5294125E-1,1.0104015E-1,3.757641E-2,4.0000004E-1,1.302544E-1,-2.1955548E-2,9.080849E-2,-1.0956978E-1,1.0588236E-1,3.254902E-1,3.019608E-1,3.921569E-3,3.019608E-1,2.8235295E-1,3.0588236E-1,1.6078432E-1,7.843138E-3,1.254902E-1,4.039216E-1,7.8431375E-2,3.2941177E-1,7.6470596E-1,8.000001E-1,6.901961E-1,1.137255E-1,8.470589E-1,-1.3509904E-1,7.367244E-2,1.1139627E-1,-4.684655E-2,-1.5145923E-1,3.759054E-2,4.396284E-2,-1.09246925E-1,4.6536017E-2,-8.542285E-2,1.7409518E-1,2.2270225E-2,-6.36767E-2,-1.462923E-1,-1.4015342E-1,2.0754758E-2,-9.117665E-2,8.1608675E-2,1.4528696E-1,-3.2188054E-2,-8.186796E-2,8.900147E-2,-6.990063E-2,9.095275E-2,-1.4596371E-1,1.1072054E-1,9.3377426E-2,-1.4616533E-1,-5.8211435E-2,1.1208717E-1,1.7674033E-1,5.4461803E-2,-1.0116606E-1,1.21093966E-1,-1.9193018E-2,9.175193E-2,-1.5127529E-1,2.7705992E-2,5.2501064E-2,1.2832145E-1,-1.3139395E-1,7.599595E-2,1.4186867E-1,6.123659E-2,1.4752275E-1,-5.1940907E-2,1.4717388E-2,-1.472102E-1,-1.4854977E-1,9.314495E-2,1.4118144E-1,-2.7276462E-2],"split_indices":[4314,10848,3951,6246,11040,4569,8934,9933,6423,6951,7779,5022,3555,6816,4122,9075,9741,5472,7833,8943,5283,9708,5847,5814,4686,11808,10664,3948,5469,3543,4170,7521,9660,5271,3021,4878,7587,5838,0,0,6801,0,0,0,0,6978,3153,5610,5088,9699,10164,7446,8349,5091,3927,3531,5412,10077,8742,4314,5298,9852,8955,0,0,0,0,0,0,0,0,0,0,0,0,0,0,0,0,0,0,0,0,0,0,0,0,0,0,0,0,0,0,0,0,0,0,0,0,0,0,0,0,0,0,0,0,0,0,0,0,0,0,0,0],"split_type":[0,0,0,0,0,0,0,0,0,0,0,0,0,0,0,0,0,0,0,0,0,0,0,0,0,0,0,0,0,0,0,0,0,0,0,0,0,0,0,0,0,0,0,0,0,0,0,0,0,0,0,0,0,0,0,0,0,0,0,0,0,0,0,0,0,0,0,0,0,0,0,0,0,0,0,0,0,0,0,0,0,0,0,0,0,0,0,0,0,0,0,0,0,0,0,0,0,0,0,0,0,0,0,0,0,0,0,0,0,0,0,0,0,0,0],"sum_hessian":[6.7835566E3,1.429549E3,5.354008E3,1.3740024E3,5.55465E1,3.9494082E3,1.4045996E3,1.2766685E3,9.7334015E1,1.232155E1,4.3224953E1,2.8599285E3,1.0894797E3,1.2618175E3,1.4278204E2,1.1795892E3,9.707917E1,5.9326958E1,3.8007053E1,8.92491E0,3.39664E0,5.2495036E0,3.797545E1,2.312395E3,5.475336E2,1.2101005E2,9.684697E2,3.7251562E2,8.893019E2,7.736636E1,6.541567E1,1.1473602E3,3.2229015E1,2.7220213E1,6.9858955E1,2.9127989E1,3.0198969E1,3.6772446E1,1.2346072E0,1.1943221E0,7.7305875E0,2.197497E0,1.1991432E0,1.7091279E0,3.5403757E0,7.1344295E0,3.084102E1,2.0635493E3,2.4884549E2,1.8606468E1,5.289272E2,1.1344471E2,7.565336E0,6.3338794E2,3.350818E2,1.430088E1,3.5821475E2,8.733808E0,8.805681E2,7.275889E1,4.6074767E0,5.8328335E1,7.087338E0,1.1396586E3,7.7016215E0,8.015897E0,2.421312E1,2.6018272E1,1.2019396E0,5.2821907E1,1.703705E1,1.3594983E1,1.5533005E1,2.4304312E1,5.8946567E0,1.34338E1,2.3338646E1,6.5277705E0,1.2028171E0,3.3112278E0,3.8232014E0,2.9385975E1,1.4550458E0,1.9088721E3,1.5467735E2,1.8833035E1,2.3001245E2,1.7125168E1,1.4813005E0,5.163236E2,1.2603592E1,1.014797E2,1.1965011E1,6.395584E0,1.1697521E0,1.0178153E1,6.232098E2,1.6300966E2,1.7207213E2,1.2566684E1,1.7341971E0,2.5459674E2,1.0361801E2,6.0571284E0,2.6766791E0,8.403115E2,4.025656E1,7.059384E1,2.1650455E0,1.1764991E0,3.4309778E0,5.5245388E1,3.08295E0,5.895024E0,1.192314E0],"tree_param":{"num_deleted":"0","num_feature":"12288","num_nodes":"115","size_leaf_vector":"1"}},{"base_weights":[-2.6688533E-4,-1.1009485E0,2.4494559E-1,-1.1886911E0,-8.2876325E-2,-6.1971107E-3,9.883635E-1,-1.2322618E0,3.321002E-1,5.142495E-1,-1.0994267E0,-2.7039918E-1,6.743282E-1,1.0945263E0,1.54952E-1,-1.257411E0,6.5673405E-1,1.2540585E0,-1.9931003E-1,-2.872901E-1,1.0173113E0,-1.2237585E0,1.1118177E-1,-5.6446606E-1,5.404373E-1,-4.128547E-1,7.799997E-1,5.8578026E-1,1.28457E0,1.2702415E0,-7.8447586E-1,-1.2709316E0,7.987323E-1,-1.1985382E-1,1.1806145E0,-8.8643186E-2,1.6183076E0,-5.865193E-1,1.23226896E-1,1.279125E-1,-5.73825E-1,1.2784532E0,-3.2900417E-1,-1.3125674E0,6.926525E-2,-7.1420914E-1,7.033892E-1,1.9321565E-1,1.0495151E0,-5.75304E-1,9.467262E-1,8.347798E-1,-1.1334308E0,4.0394485E-1,1.3921795E0,-3.3517766E-1,1.3057115E0,1.4317843E0,-1.288777E-1,-1.14395E0,1.1178001E0,-1.3032041E-1,-3.502367E-2,1.6142897E-1,-7.998317E-2,-4.695784E-2,1.533606E-1,1.793985E-1,1.5836434E-2,-1.0112323E-1,9.237443E-2,-1.13715805E-1,4.2262297E-2,1.4171146E-1,-6.3045725E-2,9.35979E-2,-1.0690726E-1,-1.0824493E-2,-1.3981478E-1,-8.212363E-2,7.362455E-2,5.130027E-2,1.5786557E-1,-1.0906745E-2,1.2708268E-1,-1.15512036E-1,1.1550559E-1,-7.191127E-2,9.3540154E-2,1.3934818E-1,-9.498625E-2,8.780899E-2,-1.11720465E-1,-1.6038951E-1,1.2649204E-1,7.8662425E-2,-1.1082077E-2,1.468104E-1,-1.3939532E-2,4.8152946E-2,-1.5272756E-1,1.314096E-1,-1.6407375E-1,1.4777233E-1,-6.31317E-2,-1.3658147E-1,1.3158976E-1,1.4261162E-1,-9.023803E-2],"categories":[],"categories_nodes":[],"categories_segments":[],"categories_sizes":[],"default_left":[0,0,0,0,0,0,0,0,0,0,0,0,0,0,0,0,0,0,0,0,0,0,0,0,0,0,0,0,0,0,0,0,0,0,0,0,0,0,0,0,0,0,0,0,0,0,0,0,0,0,0,0,0,0,0,0,0,0,0,0,0,0,0,0,0,0,0,0,0,0,0,0,0,0,0,0,0,0,0,0,0,0,0,0,0,0,0,0,0,0,0,0,0,0,0,0,0,0,0,0,0,0,0,0,0,0,0,0,0],"id":5,"left_children":[1,3,5,7,9,11,13,15,17,19,21,23,25,27,29,31,33,35,37,39,41,43,-1,45,47,49,51,53,55,57,59,61,63,-1,65,-1,67,69,-1,-1,71,73,75,77,-1,79,81,83,85,87,89,91,93,95,97,99,101,103,-1,105,107,-1,-1,-1,-1,-1,-1,-1,-1,-1,-1,-1,-1,-1,-1,-1,-1,-1,-1,-1,-1,-1,-1,-1,-1,-1,-1,-1,-1,-1,-1,-1,-1,-1,-1,-1,-1,-1,-1,-1,-1,-1,-1,-1,-1,-1,-1,-1,-1],"loss_changes":[1.7905703E3,1.07872925E2,1.01296466E3,7.4140015E1,5.943387E1,7.2951685E2,1.2104675E2,5.222534E1,1.5819756E1,2.5201677E1,1.1314556E1,6.9720355E2,1.3068243E2,1.1672473E2,1.6440608E2,3.0707642E1,1.5869867E1,1.0601023E1,1.2375826E1,1.1775645E1,1.3842087E1,6.8241577E0,0E0,4.0780237E2,1.373876E2,2.2890394E1,1.0938428E2,4.8161697E1,3.0701416E1,3.1481148E1,5.95914E1,3.1083374E1,1.1188318E1,0E0,7.769106E0,0E0,2.3835468E0,1.1982256E1,0E0,0E0,1.2541897E1,9.410618E0,7.5511045E0,3.3076172E0,0E0,2.9854218E2,3.703724E1,1.5127888E2,7.4722046E1,2.0442225E1,1.0793642E1,8.6055786E1,3.4996407E1,5.377801E1,7.2668686E0,1.25961685E1,2.3713013E1,7.368881E0,0E0,4.120935E1,1.0043655E1,0E0,0E0,0E0,0E0,0E0,0E0,0E0,0E0,0E0,0E0,0E0,0E0,0E0,0E0,0E0,0E0,0E0,0E0,0E0,0E0,0E0,0E0,0E0,0E0,0E0,0E0,0E0,0E0,0E0,0E0,0E0,0E0,0E0,0E0,0E0,0E0,0E0,0E0,0E0,0E0,0E0,0E0,0E0,0E0,0E0,0E0,0E0,0E0],"parents":[2147483647,0,0,1,1,2,2,3,3,4,4,5,5,6,6,7,7,8,8,9,9,10,10,11,11,12,12,13,13,14,14,15,15,16,16,17,17,18,18,19,19,20,20,21,21,23,23,24,24,25,25,26,26,27,27,28,28,29,29,30,30,31,31,32,32,34,34,36,36,37,37,40,40,41,41,42,42,43,43,45,45,46,46,47,47,48,48,49,49,50,50,51,51,52,52,53,53,54,54,55,55,56,56,57,57,59,59,60,60],"right_children":[2,4,6,8,10,12,14,16,18,20,22,24,26,28,30,32,34,36,38,40,42,44,-1,46,48,50,52,54,56,58,60,62,64,-1,66,-1,68,70,-1,-1,72,74,76,78,-1,80,82,84,86,88,90,92,94,96,98,100,102,104,-1,106,108,-1,-1,-1,-1,-1,-1,-1,-1,-1,-1,-1,-1,-1,-1,-1,-1,-1,-1,-1,-1,-1,-1,-1,-1,-1,-1,-1,-1,-1,-1,-1,-1,-1,-1,-1,-1,-1,-1,-1,-1,-1,-1,-1,-1,-1,-1,-1,-1],"split_conditions":[3.921569E-3,4.54902E-1,3.019608E-1,3.019608E-1,7.960785E-1,3.921569E-3,7.803922E-1,3.019608E-1,1.8039216E-1,3.921569E-3,9.490197E-1,3.921569E-3,3.137255E-2,2.0784315E-1,7.254902E-1,4.54902E-1,8.627451E-2,1.1764707E-2,3.921569E-3,3.7254903E-1,5.176471E-1,3.7254903E-1,1.1118177E-1,3.019608E-1,3.921569E-3,3.019608E-1,2.8627452E-1,4.54902E-1,1.1764707E-2,8.705883E-1,7.843138E-3,7.843138E-3,5.9607846E-1,-1.1985382E-1,7.843138E-3,-8.8643186E-2,3.019608E-1,1.9607844E-2,1.23226896E-1,1.279125E-1,3.921569E-1,7.254902E-1,4.156863E-1,5.176471E-1,6.926525E-2,3.019608E-1,3.921569E-3,3.019608E-1,3.921569E-3,1.5686275E-1,2.1960786E-1,2.5490198E-1,4.705883E-2,3.137255E-1,7.568628E-1,5.4901963E-1,9.921569E-1,8.0392164E-1,-1.288777E-1,3.921569E-3,8.313726E-1,-1.3032041E-1,-3.502367E-2,1.6142897E-1,-7.998317E-2,-4.695784E-2,1.533606E-1,1.793985E-1,1.5836434E-2,-1.0112323E-1,9.237443E-2,-1.13715805E-1,4.2262297E-2,1.4171146E-1,-6.3045725E-2,9.35979E-2,-1.0690726E-1,-1.0824493E-2,-1.3981478E-1,-8.212363E-2,7.362455E-2,5.130027E-2,1.5786557E-1,-1.0906745E-2,1.2708268E-1,-1.15512036E-1,1.1550559E-1,-7.191127E-2,9.3540154E-2,1.3934818E-1,-9.498625E-2,8.780899E-2,-1.11720465E-1,-1.6038951E-1,1.2649204E-1,7.8662425E-2,-1.1082077E-2,1.468104E-1,-1.3939532E-2,4.8152946E-2,-1.5272756E-1,1.314096E-1,-1.6407375E-1,1.4777233E-1,-6.31317E-2,-1.3658147E-1,1.3158976E-1,1.4261162E-1,-9.023803E-2],"split_indices":[4701,6648,3936,10851,5454,4761,8742,9168,10467,5670,5055,4452,4902,6429,5262,6972,7779,9090,7839,6615,4296,4161,0,5616,3870,4569,9414,3552,5469,4122,4749,9444,9102,0,7443,0,8211,10029,0,0,6480,10446,10476,9708,0,6864,10422,4458,3909,5736,2379,9600,9792,5112,7440,7764,9258,7920,0,6948,9081,0,0,0,0,0,0,0,0,0,0,0,0,0,0,0,0,0,0,0,0,0,0,0,0,0,0,0,0,0,0,0,0,0,0,0,0,0,0,0,0,0,0,0,0,0,0,0,0],"split_type":[0,0,0,0,0,0,0,0,0,0,0,0,0,0,0,0,0,0,0,0,0,0,0,0,0,0,0,0,0,0,0,0,0,0,0,0,0,0,0,0,0,0,0,0,0,0,0,0,0,0,0,0,0,0,0,0,0,0,0,0,0,0,0,0,0,0,0,0,0,0,0,0,0,0,0,0,0,0,0,0,0,0,0,0,0,0,0,0,0,0,0,0,0,0,0,0,0,0,0,0,0,0,0,0,0,0,0,0,0],"sum_hessian":[6.6321797E3,1.2077009E3,5.424479E3,1.1117196E3,9.598134E1,4.0554512E3,1.3690276E3,1.0809404E3,3.0779137E1,6.0775616E1,3.520572E1,2.9217395E3,1.1337117E3,1.2140629E3,1.5496477E2,1.0670682E3,1.3872156E1,1.0756873E1,2.0022264E1,2.360082E1,3.7174793E1,3.3754387E1,1.4513352E0,2.1443499E3,7.773897E2,1.00174675E2,1.033537E3,3.312882E2,8.8277466E2,7.068973E1,8.427504E1,1.0604768E3,6.5914726E0,2.7710257E0,1.11011305E1,1.3558294E0,9.401043E0,1.622427E1,3.797994E0,3.1138828E0,2.0486938E1,3.1177725E1,5.997069E0,3.2560577E1,1.1938064E0,1.9182295E3,2.2612038E2,4.629854E2,3.1440427E2,8.9998116E1,1.01765585E1,1.00531915E3,2.8217844E1,2.7155585E2,5.9732365E1,1.118242E1,8.715922E2,6.690662E1,3.783108E0,7.1215965E1,1.3059077E1,1.024162E3,3.631487E1,4.3581758E0,2.2332969E0,1.8979874E0,9.203143E0,8.187075E0,1.2139686E0,1.2921064E1,3.3032055E0,1.2997631E1,7.4893074E0,2.9306557E1,1.8711674E0,2.1158214E0,3.8812473E0,2.3105414E0,3.0250038E1,1.7868164E3,1.314131E2,1.870251E2,3.909528E1,3.6226456E2,1.0072086E2,1.3909265E1,3.0049503E2,8.265402E1,7.344097E0,8.451107E0,1.7254515E0,9.840358E2,2.1283339E1,2.3867258E1,4.350586E0,1.5545883E2,1.1609702E2,5.69506E1,2.7817628E0,6.9897814E0,4.1926384E0,8.696715E2,1.9207548E0,6.572682E1,1.1797984E0,6.5732056E1,5.4839106E0,1.1585053E1,1.474024E0],"tree_param":{"num_deleted":"0","num_feature":"12288","num_nodes":"109","size_leaf_vector":"1"}},{"base_weights":[-2.4905064E-4,-8.8419104E-1,2.6832944E-1,-9.573575E-1,9.638301E-1,1.9700723E-2,9.4787174E-1,-1.0398461E0,3.356697E-1,2.9900268E-1,1.4627556E0,-2.1084714E-1,8.081523E-1,1.06483E0,1.6590819E-1,-1.177741E0,-5.395667E-1,1.1399598E0,-9.321524E-1,-6.9833386E-1,9.239377E-1,-9.705084E-3,1.5750116E0,-4.2083943E-1,7.884409E-1,-3.9206308E-1,9.1391367E-1,7.531791E-1,1.3050625E0,1.2070304E0,-1.0451251E0,-1.2349383E0,-1.9812495E-2,-6.854368E-1,8.019074E-1,-7.9245305E-1,1.2994157E0,9.393708E-1,-1.3230853E0,-9.6949416E-1,8.3075516E-2,1.2962915E0,-7.5323474E-1,1.6479528E0,-1.3511099E-2,-5.589955E-1,9.4499165E-1,5.1467854E-1,1.2737427E0,-6.92213E-1,7.5589806E-1,9.7977054E-1,-3.4204558E-1,9.9631466E-2,8.817543E-1,-5.931501E-1,1.3189918E0,1.4492105E0,-4.1632485E-1,-1.3518875E0,4.18565E-1,-1.2706561E-1,-3.3725347E-2,5.2728344E-2,-8.343351E-2,-9.31937E-2,1.5905887E-2,1.2581874E-1,-8.2707874E-2,1.201501E-2,-1.10354245E-1,1.4822648E-1,-4.7565665E-2,1.5993142E-1,-6.622188E-2,-1.4287099E-1,6.482503E-2,-1.18666165E-1,2.8867418E-2,1.5342633E-1,-6.366659E-2,-3.3458516E-3,-1.07619956E-1,1.736173E-2,1.7029767E-1,-6.6298515E-2,7.730312E-2,-1.7322538E-2,1.1294259E-1,2.7134065E-2,1.3144079E-1,-4.262019E-2,1.3207853E-1,-9.084452E-2,1.1088594E-1,-5.2885126E-2,1.4089929E-1,1.1740301E-1,6.5741606E-2,-1.179707E-1,1.3355638E-1,-6.2731914E-2,9.2131734E-2,-1.5276274E-1,9.09202E-2,-1.2193681E-1,5.132919E-2,1.3261111E-1,-1.4171551E-1,1.4847313E-1,-3.775522E-4,-1.4687155E-1,6.981264E-2,-1.47309E-1,1.0703955E-1,-1.4275898E-1,9.82964E-2],"categories":[],"categories_nodes":[],"categories_segments":[],"categories_sizes":[],"default_left":[0,0,0,0,0,0,0,0,0,0,0,0,0,0,0,0,0,0,0,0,0,0,0,0,0,0,0,0,0,0,0,0,0,0,0,0,0,0,0,0,0,0,0,0,0,0,0,0,0,0,0,0,0,0,0,0,0,0,0,0,0,0,0,0,0,0,0,0,0,0,0,0,0,0,0,0,0,0,0,0,0,0,0,0,0,0,0,0,0,0,0,0,0,0,0,0,0,0,0,0,0,0,0,0,0,0,0,0,0,0,0,0,0,0,0,0,0],"id":6,"left_children":[1,3,5,7,9,11,13,15,17,19,21,23,25,27,29,31,33,35,37,39,41,-1,43,45,47,49,51,53,55,57,59,61,63,65,67,69,71,73,75,77,-1,79,81,83,-1,85,87,89,91,93,95,97,99,101,103,105,107,109,111,113,115,-1,-1,-1,-1,-1,-1,-1,-1,-1,-1,-1,-1,-1,-1,-1,-1,-1,-1,-1,-1,-1,-1,-1,-1,-1,-1,-1,-1,-1,-1,-1,-1,-1,-1,-1,-1,-1,-1,-1,-1,-1,-1,-1,-1,-1,-1,-1,-1,-1,-1,-1,-1,-1,-1,-1,-1],"loss_changes":[1.5370294E3,2.0492224E2,8.389199E2,1.5519446E2,1.8786777E1,6.6118176E2,1.2146875E2,9.352698E1,9.060956E1,1.6915148E1,5.9052505E0,5.909275E2,1.0481958E2,8.5628174E1,2.209503E2,7.078674E1,5.862388E1,1.7724724E1,2.658424E1,5.211012E0,1.1267388E1,0E0,4.052742E0,4.3951227E2,6.43226E1,2.3727236E1,6.2916016E1,4.242572E1,1.8019287E1,3.7620712E1,3.697283E1,3.2238647E1,2.3319593E1,5.598166E1,2.3017235E1,1.4814599E0,1.7073006E1,8.002964E0,6.97847E0,2.9345703E0,0E0,7.348774E0,8.069706E-1,2.0994568E0,0E0,2.932422E2,4.4345535E1,6.0820946E1,1.4614655E1,2.2001566E1,1.2858158E1,4.4262268E1,5.55902E1,5.0931885E1,2.9338501E1,4.3942394E0,1.4491699E1,4.245819E0,1.62724E1,2.1326668E1,1.6837702E1,0E0,0E0,0E0,0E0,0E0,0E0,0E0,0E0,0E0,0E0,0E0,0E0,0E0,0E0,0E0,0E0,0E0,0E0,0E0,0E0,0E0,0E0,0E0,0E0,0E0,0E0,0E0,0E0,0E0,0E0,0E0,0E0,0E0,0E0,0E0,0E0,0E0,0E0,0E0,0E0,0E0,0E0,0E0,0E0,0E0,0E0,0E0,0E0,0E0,0E0,0E0,0E0,0E0,0E0,0E0,0E0],"parents":[2147483647,0,0,1,1,2,2,3,3,4,4,5,5,6,6,7,7,8,8,9,9,10,10,11,11,12,12,13,13,14,14,15,15,16,16,17,17,18,18,19,19,20,20,22,22,23,23,24,24,25,25,26,26,27,27,28,28,29,29,30,30,31,31,32,32,33,33,34,34,35,35,36,36,37,37,38,38,39,39,41,41,42,42,43,43,45,45,46,46,47,47,48,48,49,49,50,50,51,51,52,52,53,53,54,54,55,55,56,56,57,57,58,58,59,59,60,60],"right_children":[2,4,6,8,10,12,14,16,18,20,22,24,26,28,30,32,34,36,38,40,42,-1,44,46,48,50,52,54,56,58,60,62,64,66,68,70,72,74,76,78,-1,80,82,84,-1,86,88,90,92,94,96,98,100,102,104,106,108,110,112,114,116,-1,-1,-1,-1,-1,-1,-1,-1,-1,-1,-1,-1,-1,-1,-1,-1,-1,-1,-1,-1,-1,-1,-1,-1,-1,-1,-1,-1,-1,-1,-1,-1,-1,-1,-1,-1,-1,-1,-1,-1,-1,-1,-1,-1,-1,-1,-1,-1,-1,-1,-1,-1,-1,-1,-1,-1],"split_conditions":[3.921569E-3,3.019608E-1,3.019608E-1,4.54902E-1,3.921569E-3,3.921569E-3,8.117648E-1,3.921569E-3,8.078432E-1,3.921569E-3,7.8431375E-2,3.921569E-3,3.137255E-2,4.039216E-1,7.725491E-1,3.921569E-3,1.1764707E-2,3.921569E-3,6.392157E-1,3.921569E-3,1.254902E-1,-9.705084E-3,3.8431376E-1,3.019608E-1,3.921569E-3,3.137255E-2,3.9215688E-2,3.921569E-3,3.921569E-3,7.019608E-1,3.921569E-3,4.54902E-1,1.9607844E-2,3.019608E-1,8.235294E-2,4.431373E-1,8.82353E-1,6.9803923E-1,3.921569E-3,3.1764707E-1,8.3075516E-2,3.4509805E-1,1.137255E-1,5.4901965E-2,-1.3511099E-2,3.019608E-1,5.4901965E-2,3.019608E-1,1.1764707E-2,3.019608E-1,7.450981E-2,9.8039225E-2,7.8431375E-2,7.843138E-3,3.921569E-3,3.921569E-3,9.8823535E-1,4.705883E-2,8.6274517E-1,3.2156864E-1,5.882353E-1,-1.2706561E-1,-3.3725347E-2,5.2728344E-2,-8.343351E-2,-9.31937E-2,1.5905887E-2,1.2581874E-1,-8.2707874E-2,1.201501E-2,-1.10354245E-1,1.4822648E-1,-4.7565665E-2,1.5993142E-1,-6.622188E-2,-1.4287099E-1,6.482503E-2,-1.18666165E-1,2.8867418E-2,1.5342633E-1,-6.366659E-2,-3.3458516E-3,-1.07619956E-1,1.736173E-2,1.7029767E-1,-6.6298515E-2,7.730312E-2,-1.7322538E-2,1.1294259E-1,2.7134065E-2,1.3144079E-1,-4.262019E-2,1.3207853E-1,-9.084452E-2,1.1088594E-1,-5.2885126E-2,1.4089929E-1,1.1740301E-1,6.5741606E-2,-1.179707E-1,1.3355638E-1,-6.2731914E-2,9.2131734E-2,-1.5276274E-1,9.09202E-2,-1.2193681E-1,5.132919E-2,1.3261111E-1,-1.4171551E-1,1.4847313E-1,-3.775522E-4,-1.4687155E-1,6.981264E-2,-1.47309E-1,1.0703955E-1,-1.4275898E-1,9.82964E-2],"split_indices":[3939,11040,4130,5856,11415,3993,7791,9921,5868,7440,8748,4638,4320,5280,7374,8676,9945,5661,5841,8286,3786,0,3168,4749,5010,8607,9219,3918,3933,9480,3891,6246,4533,8586,3408,5859,6042,6216,8784,7932,0,4323,3528,7587,0,5418,5283,5217,5064,4956,5487,10299,8079,5133,3936,8766,11035,10568,7794,5133,7581,0,0,0,0,0,0,0,0,0,0,0,0,0,0,0,0,0,0,0,0,0,0,0,0,0,0,0,0,0,0,0,0,0,0,0,0,0,0,0,0,0,0,0,0,0,0,0,0,0,0,0,0,0,0,0,0],"split_type":[0,0,0,0,0,0,0,0,0,0,0,0,0,0,0,0,0,0,0,0,0,0,0,0,0,0,0,0,0,0,0,0,0,0,0,0,0,0,0,0,0,0,0,0,0,0,0,0,0,0,0,0,0,0,0,0,0,0,0,0,0,0,0,0,0,0,0,0,0,0,0,0,0,0,0,0,0,0,0,0,0,0,0,0,0,0,0,0,0,0,0,0,0,0,0,0,0,0,0,0,0,0,0,0,0,0,0,0,0,0,0,0,0,0,0,0,0],"sum_hessian":[6.4722163E3,1.5077238E3,4.9644927E3,1.4507672E3,5.695655E1,3.6354097E3,1.3290829E3,1.36395E3,8.681722E1,2.5104126E1,3.1852425E1,2.8134678E3,8.219419E2,1.1558419E3,1.7324089E2,1.0681698E3,2.9578015E2,5.3180832E1,3.363639E1,9.625422E0,1.5478704E1,2.1475463E0,2.9704878E1,2.3253857E3,4.8808212E2,6.634376E1,7.5559814E2,5.049332E2,6.5090875E2,9.3157196E1,8.00837E1,1.01782666E3,5.0343204E1,2.6721283E2,2.8567324E1,3.751193E0,4.942964E1,5.5696707E0,2.806672E1,8.486448E0,1.1389742E0,1.2852403E1,2.6263013E0,2.8524582E1,1.180295E0,2.1123125E3,2.1307318E2,3.1336893E2,1.7471318E2,5.2907406E1,1.3436348E1,7.181609E2,3.7437225E1,8.3299034E1,4.2163416E2,4.4387217E0,6.4647003E2,8.115707E1,1.20001335E1,6.627093E1,1.3812774E1,9.7847864E2,3.9348E1,3.0326347E1,2.001686E1,2.0675847E2,6.045436E1,2.2494286E1,6.073038E0,1.1096704E0,2.6415224E0,4.496299E1,4.4666505E0,3.945378E0,1.6242929E0,2.6900637E1,1.1660826E0,7.2857227E0,1.2007253E0,1.1627206E1,1.2251977E0,1.1552497E0,1.4710516E0,1.1757667E0,2.7348816E1,1.9598146E3,1.5249799E2,3.0176302E1,1.8289688E2,2.4128972E2,7.207922E1,4.4876137E0,1.7022557E2,4.7678818E1,5.228589E0,4.59245E0,8.843897E0,4.4646628E2,2.7169464E2,2.5167446E1,1.2269778E1,4.4322865E1,3.897617E1,4.133529E0,4.1750064E2,2.769304E0,1.6694177E0,6.4530634E2,1.163731E0,7.919906E1,1.9580026E0,6.008422E0,5.9917116E0,6.3486156E1,2.784768E0,2.875988E0,1.0936786E1],"tree_param":{"num_deleted":"0","num_feature":"12288","num_nodes":"117","size_leaf_vector":"1"}},{"base_weights":[-1.269941E-4,-1.0070826E0,2.1088561E-1,-1.1004814E0,-7.535505E-2,-6.628964E-5,9.0732026E-1,-1.1470891E0,5.6380945E-1,3.29536E-1,-7.5020206E-1,-2.6239786E-1,5.7998544E-1,1.0657554E0,-3.5937462E-2,-1.1813474E0,-1.4925858E-1,9.054473E-1,-7.2777414E-1,-7.286233E-1,7.2642946E-1,-1.121868E0,6.84959E-2,-4.5656866E-1,8.155861E-1,8.22106E-1,2.9795196E-2,-3.9199904E-1,1.1078745E0,1.1900392E0,-8.971445E-1,-1.2108256E0,8.578642E-3,5.1295805E-1,-1.371764E-1,-8.4961325E-2,1.1038913E0,-1.2770179E-1,6.781072E-2,-9.154007E-1,7.139675E-2,-2.251205E-1,1.0863557E0,-1.2637796E0,6.2391873E-2,7.857115E-1,-1.0685652E0,-5.8497876E-1,6.153896E-1,4.5787773E-1,1.328793E0,-6.145235E-2,9.1721004E-1,-7.859416E-1,8.388707E-1,-7.349542E-1,9.3638015E-1,4.2069945E-1,1.1553024E0,1.2643251E0,-4.7301167E-1,-1.1825906E0,1.2160317E0,-1.24628566E-1,-4.3347385E-2,1.481469E-1,-6.7915045E-2,-5.7014752E-2,1.1380136E-1,1.2630096E-1,-8.443669E-2,-1.6650727E-2,-1.2120167E-1,-7.639291E-2,1.2651588E-1,1.2321049E-1,-6.601014E-2,-1.3690735E-1,4.5803137E-2,-9.119061E-2,1.2870969E-1,-1.1816789E-1,-3.0941317E-2,-7.130612E-2,4.077531E-2,-1.18893765E-1,8.72124E-2,7.5165756E-2,-3.605266E-2,1.3862383E-1,-1.2360068E-1,-1.4566115E-1,1.4309888E-2,1.04040585E-1,7.236264E-4,-1.10026434E-1,3.1035755E-2,8.867889E-2,-1.9768764E-1,-1.0418828E-1,1.067005E-1,-3.801981E-2,1.302721E-1,-2.292343E-2,1.4886747E-1,1.16454236E-1,-1.4498696E-1,1.3933216E-1,3.015416E-2,7.781711E-2,-1.3611133E-1,-1.2841499E-1,1.1246168E-1,1.2865512E-1,1.9160531E-2],"categories":[],"categories_nodes":[],"categories_segments":[],"categories_sizes":[],"default_left":[0,0,0,0,0,0,0,0,0,0,0,0,0,0,0,0,0,0,0,0,0,0,0,0,0,0,0,0,0,0,0,0,0,0,0,0,0,0,0,0,0,0,0,0,0,0,0,0,0,0,0,0,0,0,0,0,0,0,0,0,0,0,0,0,0,0,0,0,0,0,0,0,0,0,0,0,0,0,0,0,0,0,0,0,0,0,0,0,0,0,0,0,0,0,0,0,0,0,0,0,0,0,0,0,0,0,0,0,0,0,0,0,0,0,0],"id":7,"left_children":[1,3,5,7,9,11,13,15,17,19,21,23,25,27,29,31,33,35,37,39,41,43,45,47,49,51,53,55,57,59,61,63,65,67,-1,-1,69,-1,-1,71,-1,73,75,77,-1,79,81,83,85,87,89,91,93,95,97,99,101,103,105,107,109,111,113,-1,-1,-1,-1,-1,-1,-1,-1,-1,-1,-1,-1,-1,-1,-1,-1,-1,-1,-1,-1,-1,-1,-1,-1,-1,-1,-1,-1,-1,-1,-1,-1,-1,-1,-1,-1,-1,-1,-1,-1,-1,-1,-1,-1,-1,-1,-1,-1,-1,-1,-1,-1],"loss_changes":[1.3400636E3,9.5001465E1,7.6602856E2,7.7674194E1,2.774167E1,6.09261E2,1.8119489E2,3.2855713E1,1.2891404E1,2.7233837E1,1.165119E1,5.774568E2,1.6607626E2,6.416077E1,1.8614632E2,3.2774902E1,2.759666E1,8.728487E0,5.7717857E0,5.461376E0,1.6253233E1,7.28421E0,1.12937765E1,3.2203085E2,7.670926E1,7.281079E1,2.5282332E2,1.430291E1,3.2399048E1,9.586792E0,6.3890045E1,2.458545E1,2.488505E1,1.5729095E1,0E0,0E0,7.4312286E0,0E0,0E0,3.40481E0,0E0,1.1932305E1,9.489685E0,5.0830765E0,0E0,8.355003E0,9.652996E-2,2.6570612E2,1.1706531E2,6.03089E1,2.7122925E1,2.4487286E1,8.762952E1,6.607875E1,2.76996E1,1.45583725E1,3.665093E0,4.6650726E1,2.439502E1,8.263634E0,5.324778E0,2.293602E1,6.7920876E-1,0E0,0E0,0E0,0E0,0E0,0E0,0E0,0E0,0E0,0E0,0E0,0E0,0E0,0E0,0E0,0E0,0E0,0E0,0E0,0E0,0E0,0E0,0E0,0E0,0E0,0E0,0E0,0E0,0E0,0E0,0E0,0E0,0E0,0E0,0E0,0E0,0E0,0E0,0E0,0E0,0E0,0E0,0E0,0E0,0E0,0E0,0E0,0E0,0E0,0E0,0E0,0E0],"parents":[2147483647,0,0,1,1,2,2,3,3,4,4,5,5,6,6,7,7,8,8,9,9,10,10,11,11,12,12,13,13,14,14,15,15,16,16,17,17,18,18,19,19,20,20,21,21,22,22,23,23,24,24,25,25,26,26,27,27,28,28,29,29,30,30,31,31,32,32,33,33,36,36,39,39,41,41,42,42,43,43,45,45,46,46,47,47,48,48,49,49,50,50,51,51,52,52,53,53,54,54,55,55,56,56,57,57,58,58,59,59,60,60,61,61,62,62],"right_children":[2,4,6,8,10,12,14,16,18,20,22,24,26,28,30,32,34,36,38,40,42,44,46,48,50,52,54,56,58,60,62,64,66,68,-1,-1,70,-1,-1,72,-1,74,76,78,-1,80,82,84,86,88,90,92,94,96,98,100,102,104,106,108,110,112,114,-1,-1,-1,-1,-1,-1,-1,-1,-1,-1,-1,-1,-1,-1,-1,-1,-1,-1,-1,-1,-1,-1,-1,-1,-1,-1,-1,-1,-1,-1,-1,-1,-1,-1,-1,-1,-1,-1,-1,-1,-1,-1,-1,-1,-1,-1,-1,-1,-1,-1,-1,-1],"split_conditions":[3.921569E-3,3.0588236E-1,3.019608E-1,3.019608E-1,1.5686275E-1,3.921569E-3,8.078432E-1,7.843138E-3,9.411766E-2,3.921569E-3,3.921569E-3,3.921569E-3,2.7058825E-1,3.137255E-2,7.372549E-1,4.54902E-1,7.8431375E-2,7.843138E-3,1.4901961E-1,3.1764707E-1,3.921569E-3,3.921569E-3,5.921569E-1,3.921569E-3,3.921569E-3,3.137255E-2,3.019608E-1,2.9411766E-1,3.921569E-3,7.6470596E-1,3.921569E-3,2.3529414E-2,5.137255E-1,3.921569E-3,-1.371764E-1,-8.4961325E-2,3.019608E-1,-1.2770179E-1,6.781072E-2,2.9803923E-1,7.139675E-2,7.450981E-2,1.8431373E-1,3.921569E-3,6.2391873E-2,3.1764707E-1,7.843138E-1,3.019608E-1,3.921569E-3,2.7450982E-1,2.8627452E-1,6.27451E-2,2.7450982E-1,3.921569E-3,8.352942E-1,8.235294E-2,4.705883E-2,2.1176472E-1,9.7647065E-1,8.196079E-1,7.5294125E-1,3.921569E-3,5.921569E-1,-1.24628566E-1,-4.3347385E-2,1.481469E-1,-6.7915045E-2,-5.7014752E-2,1.1380136E-1,1.2630096E-1,-8.443669E-2,-1.6650727E-2,-1.2120167E-1,-7.639291E-2,1.2651588E-1,1.2321049E-1,-6.601014E-2,-1.3690735E-1,4.5803137E-2,-9.119061E-2,1.2870969E-1,-1.1816789E-1,-3.0941317E-2,-7.130612E-2,4.077531E-2,-1.18893765E-1,8.72124E-2,7.5165756E-2,-3.605266E-2,1.3862383E-1,-1.2360068E-1,-1.4566115E-1,1.4309888E-2,1.04040585E-1,7.236264E-4,-1.10026434E-1,3.1035755E-2,8.867889E-2,-1.9768764E-1,-1.0418828E-1,1.067005E-1,-3.801981E-2,1.302721E-1,-2.292343E-2,1.4886747E-1,1.16454236E-1,-1.4498696E-1,1.3933216E-1,3.015416E-2,7.781711E-2,-1.3611133E-1,-1.2841499E-1,1.1246168E-1,1.2865512E-1,1.9160531E-2],"split_indices":[4707,7821,7774,8880,4281,5145,7014,8865,4167,8400,10434,8286,2823,5088,7376,6249,3783,6798,7761,4155,9354,10308,10059,3492,9828,4146,2823,4743,3933,8589,2418,9180,6423,5460,0,0,4899,0,0,8013,0,3978,5802,9381,0,8397,5700,5130,3348,8865,12048,7566,2820,4386,11607,5985,4536,8769,4761,7764,3351,5523,7722,0,0,0,0,0,0,0,0,0,0,0,0,0,0,0,0,0,0,0,0,0,0,0,0,0,0,0,0,0,0,0,0,0,0,0,0,0,0,0,0,0,0,0,0,0,0,0,0,0,0,0,0],"split_type":[0,0,0,0,0,0,0,0,0,0,0,0,0,0,0,0,0,0,0,0,0,0,0,0,0,0,0,0,0,0,0,0,0,0,0,0,0,0,0,0,0,0,0,0,0,0,0,0,0,0,0,0,0,0,0,0,0,0,0,0,0,0,0,0,0,0,0,0,0,0,0,0,0,0,0,0,0,0,0,0,0,0,0,0,0,0,0,0,0,0,0,0,0,0,0,0,0,0,0,0,0,0,0,0,0,0,0,0,0,0,0,0,0,0,0],"sum_hessian":[6.3047666E3,1.0916453E3,5.213121E3,9.9202124E2,9.9624E1,4.0019268E3,1.2111943E3,9.6529926E2,2.6722012E1,6.2585804E1,3.70382E1,2.7560403E3,1.2458866E3,1.0369005E3,1.7429385E2,9.330801E2,3.2219147E1,2.136872E1,5.353294E0,1.6843489E1,4.5742313E1,2.521912E1,1.1819082E1,2.3358704E3,4.2016992E2,8.6481555E2,3.8107098E2,2.8884712E1,1.0080158E3,7.175902E1,1.0253483E2,9.105065E2,2.2573645E1,2.1275087E1,1.0944058E1,1.837377E0,1.9531342E1,3.91533E0,1.4379638E0,1.5236245E1,1.6072441E0,1.2656474E1,3.308584E1,2.3578562E1,1.6405578E0,7.4370604E0,4.382022E0,2.0863948E3,2.4947537E2,2.4870985E2,1.7146008E2,8.407506E1,7.807405E2,1.8976859E2,1.913024E2,2.3312675E1,5.5720363E0,6.5717476E1,9.4229834E2,6.892021E1,2.8388097E0,9.072072E1,1.1814108E1,8.7020734E2,4.029914E1,6.8178654E0,1.5755779E1,7.8171897E0,1.3457898E1,1.8381786E1,1.1495545E0,4.76556E0,1.0470685E1,9.653614E0,3.0028603E0,3.0809193E1,2.2766454E0,2.2412815E1,1.1657468E0,1.5090075E0,5.928053E0,3.3293684E0,1.0526536E0,1.8482191E3,2.3817572E2,3.0623392E1,2.1885197E2,1.8307397E2,6.563589E1,1.6815337E2,3.3067105E0,9.967802E0,7.4107254E1,6.875182E2,9.32223E1,1.4748047E2,4.2288116E1,1.8877489E2,2.5274994E0,2.0280153E1,3.0325227E0,1.2046969E0,4.367339E0,4.1342922E1,2.4374554E1,9.395191E2,2.7792492E0,6.0382786E1,8.537427E0,1.2298888E0,1.6089209E0,8.732044E1,3.4002779E0,1.0813829E1,1.0002786E0],"tree_param":{"num_deleted":"0","num_feature":"12288","num_nodes":"115","size_leaf_vector":"1"}},{"base_weights":[-2.2702236E-4,-8.717912E-1,2.1545036E-1,-9.939179E-1,-7.466231E-2,2.7691897E-2,9.271656E-1,-1.0794505E0,-1.6315669E-1,-3.0552328E-1,8.644307E-1,-1.2618871E-1,6.6184306E-1,-7.0648086E-1,9.696497E-1,-1.0972682E0,1.4178289E0,-5.565138E-1,8.8476723E-1,-5.6162786E-1,4.2253593E-1,1.4303002E0,-1.7936163E-1,-2.7432865E-1,7.5648314E-1,-2.6389474E-1,7.902512E-1,-1.022698E0,7.2195345E-1,6.753354E-1,1.1078743E0,-1.1177766E0,9.324556E-1,1.6484198E-1,1.4276825E-3,-7.829308E-1,8.7229204E-1,1.13417E0,-8.031774E-1,-6.7649573E-1,7.81454E-1,6.044939E-1,-1.0900625E-1,1.487145E-1,1.8345028E-2,7.819395E-1,-8.0715764E-1,-4.3623134E-1,6.523019E-1,9.433545E-1,1.5953481E-1,-4.3303773E-1,1.3689677E0,1.193808E0,5.8328056E-1,-1.2943728E0,6.1190325E-1,1.1526419E-1,-4.659119E-2,8.324067E-1,-3.5041222E-1,1.2293378E0,6.9973487E-1,-1.14557385E-1,1.8474823E-3,-7.261764E-2,1.4319114E-1,-9.655429E-2,6.333131E-2,-1.00521676E-1,1.4132093E-1,-1.7545527E-2,1.3786599E-1,-1.1221681E-1,5.285613E-3,-4.670116E-2,-1.2920597E-1,1.263808E-1,-8.567815E-2,-8.333551E-2,8.030173E-2,1.1691395E-1,-4.0815335E-2,-1.2499737E-1,4.4755943E-2,-5.3651035E-2,9.313276E-2,8.1601955E-2,-7.2938785E-2,-7.071536E-2,1.0130105E-1,-6.2130976E-2,1.01741314E-1,-5.837335E-2,1.2575285E-1,1.5607612E-1,7.179672E-4,-8.7477826E-2,1.2428351E-1,-5.3991675E-3,7.642148E-2,-1.5635106E-1,7.4838705E-2,1.1886555E-1,-3.9543327E-2,9.6358664E-2,-2.1940053E-2,8.316679E-2,-9.789207E-2,-1.0237687E-1,1.2510356E-1,-1.20974734E-1,7.820477E-2],"categories":[],"categories_nodes":[],"categories_segments":[],"categories_sizes":[],"default_left":[0,0,0,0,0,0,0,0,0,0,0,0,0,0,0,0,0,0,0,0,0,0,0,0,0,0,0,0,0,0,0,0,0,0,0,0,0,0,0,0,0,0,0,0,0,0,0,0,0,0,0,0,0,0,0,0,0,0,0,0,0,0,0,0,0,0,0,0,0,0,0,0,0,0,0,0,0,0,0,0,0,0,0,0,0,0,0,0,0,0,0,0,0,0,0,0,0,0,0,0,0,0,0,0,0,0,0,0,0,0,0,0,0],"id":8,"left_children":[1,3,5,7,9,11,13,15,17,19,21,23,25,27,29,31,33,35,37,39,41,43,45,47,49,51,53,55,57,59,61,63,65,-1,-1,67,69,71,73,75,77,79,-1,-1,-1,81,83,85,87,89,91,93,95,97,99,101,103,-1,-1,105,107,109,111,-1,-1,-1,-1,-1,-1,-1,-1,-1,-1,-1,-1,-1,-1,-1,-1,-1,-1,-1,-1,-1,-1,-1,-1,-1,-1,-1,-1,-1,-1,-1,-1,-1,-1,-1,-1,-1,-1,-1,-1,-1,-1,-1,-1,-1,-1,-1,-1,-1,-1],"loss_changes":[1.1542885E3,1.18510376E2,6.5776794E2,7.4874756E1,3.558359E1,3.8026697E2,7.199762E1,4.4157715E1,4.161874E1,2.475763E1,1.9398268E1,4.1027307E2,9.066272E1,1.2763397E1,4.0009644E1,4.0637695E1,2.3128862E0,2.4349037E1,1.25365715E1,1.5603573E1,1.023461E1,1.224556E0,8.042998E0,4.0326245E2,5.015445E1,2.6400063E1,5.5139282E1,1.0655329E1,3.3055136E0,5.228804E1,3.2857605E1,2.977893E1,9.373766E0,0E0,0E0,1.7079376E1,1.2063667E1,8.078623E0,1.1899502E0,1.1073189E1,7.5329475E0,9.717584E0,0E0,0E0,0E0,2.9470456E0,4.9607105E0,3.1415698E2,9.105885E1,4.017758E1,7.345748E1,2.2498335E1,2.3423176E0,2.3973602E1,5.12166E1,1.1817364E1,2.7035532E0,0E0,0E0,3.8867783E1,3.3176926E1,2.6840942E1,2.5828865E1,0E0,0E0,0E0,0E0,0E0,0E0,0E0,0E0,0E0,0E0,0E0,0E0,0E0,0E0,0E0,0E0,0E0,0E0,0E0,0E0,0E0,0E0,0E0,0E0,0E0,0E0,0E0,0E0,0E0,0E0,0E0,0E0,0E0,0E0,0E0,0E0,0E0,0E0,0E0,0E0,0E0,0E0,0E0,0E0,0E0,0E0,0E0,0E0,0E0,0E0],"parents":[2147483647,0,0,1,1,2,2,3,3,4,4,5,5,6,6,7,7,8,8,9,9,10,10,11,11,12,12,13,13,14,14,15,15,16,16,17,17,18,18,19,19,20,20,21,21,22,22,23,23,24,24,25,25,26,26,27,27,28,28,29,29,30,30,31,31,32,32,35,35,36,36,37,37,38,38,39,39,40,40,41,41,45,45,46,46,47,47,48,48,49,49,50,50,51,51,52,52,53,53,54,54,55,55,56,56,59,59,60,60,61,61,62,62],"right_children":[2,4,6,8,10,12,14,16,18,20,22,24,26,28,30,32,34,36,38,40,42,44,46,48,50,52,54,56,58,60,62,64,66,-1,-1,68,70,72,74,76,78,80,-1,-1,-1,82,84,86,88,90,92,94,96,98,100,102,104,-1,-1,106,108,110,112,-1,-1,-1,-1,-1,-1,-1,-1,-1,-1,-1,-1,-1,-1,-1,-1,-1,-1,-1,-1,-1,-1,-1,-1,-1,-1,-1,-1,-1,-1,-1,-1,-1,-1,-1,-1,-1,-1,-1,-1,-1,-1,-1,-1,-1,-1,-1,-1,-1,-1],"split_conditions":[3.921569E-3,3.5686275E-1,3.019608E-1,3.921569E-3,4.54902E-1,3.921569E-3,3.921569E-3,5.2156866E-1,3.921569E-3,3.921569E-3,6.745098E-1,3.921569E-3,3.137255E-2,1.1764707E-2,3.921569E-3,3.019608E-1,7.019608E-1,3.019608E-1,2.9411766E-1,3.921569E-3,8.588236E-1,7.372549E-1,7.607844E-1,3.019608E-1,2.7058825E-1,3.137255E-2,2.7450982E-2,3.921569E-3,3.1764707E-1,6.901961E-1,1.5686275E-2,3.019608E-1,3.921569E-3,1.6484198E-1,1.4276825E-3,3.019608E-1,9.411766E-2,7.8431375E-2,1.5294118E-1,7.843138E-1,3.921569E-3,1.3333334E-1,-1.0900625E-1,1.487145E-1,1.8345028E-2,8.0392164E-1,3.529412E-1,3.019608E-1,8.117648E-1,7.843138E-3,3.019608E-1,3.4509805E-1,1.9215688E-1,3.921569E-3,8.627451E-2,4.54902E-1,2.0784315E-1,1.1526419E-1,-4.659119E-2,3.019608E-1,7.6470596E-1,1.1764707E-2,6.27451E-2,-1.14557385E-1,1.8474823E-3,-7.261764E-2,1.4319114E-1,-9.655429E-2,6.333131E-2,-1.00521676E-1,1.4132093E-1,-1.7545527E-2,1.3786599E-1,-1.1221681E-1,5.285613E-3,-4.670116E-2,-1.2920597E-1,1.263808E-1,-8.567815E-2,-8.333551E-2,8.030173E-2,1.1691395E-1,-4.0815335E-2,-1.2499737E-1,4.4755943E-2,-5.3651035E-2,9.313276E-2,8.1601955E-2,-7.2938785E-2,-7.071536E-2,1.0130105E-1,-6.2130976E-2,1.01741314E-1,-5.837335E-2,1.2575285E-1,1.5607612E-1,7.179672E-4,-8.7477826E-2,1.2428351E-1,-5.3991675E-3,7.642148E-2,-1.5635106E-1,7.4838705E-2,1.1886555E-1,-3.9543327E-2,9.6358664E-2,-2.1940053E-2,8.316679E-2,-9.789207E-2,-1.0237687E-1,1.2510356E-1,-1.20974734E-1,7.820477E-2],"split_indices":[4314,6840,2973,10311,5670,5151,2967,6972,11451,11040,5841,5019,3759,7839,2397,10620,8526,5475,3405,8217,5295,6213,6060,8124,2163,9249,10080,10620,3780,9510,11235,9075,8157,0,0,9924,7428,9150,8208,5454,3741,8562,0,0,0,6999,4719,5715,4323,4686,2163,7446,3303,3564,4899,3969,2772,0,0,2589,4122,4884,4893,0,0,0,0,0,0,0,0,0,0,0,0,0,0,0,0,0,0,0,0,0,0,0,0,0,0,0,0,0,0,0,0,0,0,0,0,0,0,0,0,0,0,0,0,0,0,0,0,0,0],"split_type":[0,0,0,0,0,0,0,0,0,0,0,0,0,0,0,0,0,0,0,0,0,0,0,0,0,0,0,0,0,0,0,0,0,0,0,0,0,0,0,0,0,0,0,0,0,0,0,0,0,0,0,0,0,0,0,0,0,0,0,0,0,0,0,0,0,0,0,0,0,0,0,0,0,0,0,0,0,0,0,0,0,0,0,0,0,0,0,0,0,0,0,0,0,0,0,0,0,0,0,0,0,0,0,0,0,0,0,0,0,0,0,0,0],"sum_hessian":[6.138595E3,1.217117E3,4.9214785E3,1.0552041E3,1.6191283E2,3.8949783E3,1.0265E3,9.564333E2,9.877081E1,1.3050494E2,3.1407885E1,3.1350425E3,7.59936E2,2.5622051E1,1.0008779E3,9.5021423E2,6.2190495E0,7.215505E1,2.661576E1,9.6713326E1,3.3791615E1,2.0126463E1,1.1281421E1,2.6850896E3,4.4995276E2,9.244115E1,6.674948E2,2.1210629E1,4.4114227E0,3.217272E2,6.7915076E2,9.411541E2,9.060131E0,5.191646E0,1.0274031E0,6.2675205E1,9.479843E0,2.3475245E1,3.140516E0,8.955075E1,7.162571E0,3.0699036E1,3.0925784E0,1.9064575E1,1.0618879E0,4.359889E0,6.921532E0,2.286174E3,3.9891556E2,3.4223703E2,1.0771572E2,8.443011E1,8.0110445E0,2.2466643E2,4.4282837E2,1.8366253E1,2.8443756E0,3.259329E0,1.1520935E0,2.791672E2,4.256E1,5.2183813E2,1.573126E2,9.186715E2,2.2482561E1,1.9917696E0,7.0683618E0,5.57987E1,6.8765097E0,1.9283247E0,7.551519E0,3.737492E0,1.9737751E1,2.061449E0,1.0790668E0,6.8125465E1,2.1425285E1,5.709924E0,1.4526466E0,3.3364322E0,2.7362604E1,3.302891E0,1.056998E0,5.1187854E0,1.8027468E0,2.1305544E3,1.5561954E2,3.570212E2,4.1894337E1,1.3487884E1,3.2874915E2,5.6533993E1,5.118173E1,7.8121155E1,6.308948E0,6.893987E0,1.1170577E0,4.8115544E0,2.1985487E2,9.808006E1,3.4474832E2,1.6435457E1,1.9307959E0,1.6943016E0,1.150074E0,2.4828528E2,3.0881922E1,1.4661619E1,2.789838E1,4.5369406E0,5.173012E2,5.93506E0,1.5137755E2],"tree_param":{"num_deleted":"0","num_feature":"12288","num_nodes":"113","size_leaf_vector":"1"}},{"base_weights":[-3.745646E-5,-1.0129218E0,1.6862969E-1,-1.109776E0,-3.7812954E-1,-2.7246447E-2,7.9076314E-1,-1.1330389E0,4.1750675E-1,-9.542675E-2,-1.1241492E0,-2.6005393E-1,4.8528838E-1,9.401084E-1,4.72622E-2,-1.148859E0,3.9388785E-1,-1.0825186E-1,8.8652486E-1,-5.721775E-1,4.2408317E-1,-1.2822013E0,7.344629E-2,-5.556939E-1,3.2824704E-1,6.868775E-1,-7.763182E-2,6.355367E-1,1.1170288E0,8.032129E-1,-8.52293E-1,-1.1568693E0,1.0762421E0,9.8400235E-1,-1.1644661E-1,1.4236534E0,-3.0711287E-1,-6.9993174E-1,1.3551226E-1,1.2834914E0,-3.3906914E-2,8.571476E-3,-1.3337082E0,-7.2935903E-1,1.4385685E-1,1.519545E-1,1.1677612E0,-1.8696104E-1,8.139318E-1,-7.8650206E-1,6.31811E-1,-3.4337733E-2,8.482244E-1,1.1675465E0,5.836841E-1,9.5337826E-1,-5.7741326E-1,-1.0333364E0,1.0194526E0,-1.1740941E-1,-6.290719E-3,5.19077E-3,1.5518229E-1,-5.1265925E-2,1.4959651E-1,1.7185746E-1,4.910955E-3,-8.926249E-2,4.285345E-2,-8.330143E-2,1.2270522E-1,1.4331084E-1,-3.105378E-2,6.497298E-2,-5.3170454E-2,-1.3677862E-1,-2.5665E-2,-8.415816E-2,2.929463E-2,-2.0006744E-2,1.2253145E-1,-1.990138E-2,7.124244E-2,-5.7612814E-2,1.252518E-1,-3.897582E-2,1.01347245E-1,9.141206E-2,6.909933E-3,-1.05626695E-1,6.251544E-2,-1.37316E-1,7.666334E-2,-3.0621553E-2,1.3962641E-1,-6.381153E-2,9.2377834E-2,-5.2882887E-2,1.18327655E-1,1.15228735E-1,-2.919134E-2,8.622404E-3,1.0945199E-1,9.264734E-2,-1.1790669E-1,-1.2738645E-1,3.5919394E-2,1.2222687E-1,-2.8683538E-2],"categories":[],"categories_nodes":[],"categories_segments":[],"categories_sizes":[],"default_left":[0,0,0,0,0,0,0,0,0,0,0,0,0,0,0,0,0,0,0,0,0,0,0,0,0,0,0,0,0,0,0,0,0,0,0,0,0,0,0,0,0,0,0,0,0,0,0,0,0,0,0,0,0,0,0,0,0,0,0,0,0,0,0,0,0,0,0,0,0,0,0,0,0,0,0,0,0,0,0,0,0,0,0,0,0,0,0,0,0,0,0,0,0,0,0,0,0,0,0,0,0,0,0,0,0,0,0,0,0],"id":9,"left_children":[1,3,5,7,9,11,13,15,17,19,21,23,25,27,29,31,33,-1,35,37,39,41,-1,43,45,47,49,51,53,55,57,59,61,63,-1,65,67,69,-1,71,73,-1,75,77,79,81,83,85,87,89,91,93,95,97,99,101,103,105,107,-1,-1,-1,-1,-1,-1,-1,-1,-1,-1,-1,-1,-1,-1,-1,-1,-1,-1,-1,-1,-1,-1,-1,-1,-1,-1,-1,-1,-1,-1,-1,-1,-1,-1,-1,-1,-1,-1,-1,-1,-1,-1,-1,-1,-1,-1,-1,-1,-1,-1],"loss_changes":[1.0213144E3,5.2048645E1,6.245344E2,2.676117E1,2.4038237E1,4.6531525E2,1.3622052E2,1.8063965E1,9.283632E0,2.1076626E1,1.0156704E1,4.6656778E2,1.3827902E2,5.435327E1,1.4098836E2,1.4111023E1,8.70588E0,0E0,6.5684695E0,1.18535185E1,1.611343E1,2.1769524E0,0E0,2.1696552E2,1.3265015E2,9.974054E1,1.6247502E2,5.385527E1,1.6698792E1,2.390017E1,3.314354E1,1.3488403E1,1.4332001E0,5.751216E0,0E0,2.6611338E0,2.015152E0,1.1843161E1,0E0,3.8362904E0,9.740987E0,0E0,6.866951E-1,1.6432721E2,1.3259784E2,1.4627069E2,2.3721466E1,2.8312769E1,5.8390564E1,6.2182396E1,4.47174E1,3.62131E1,3.279567E1,1.6322815E1,2.9119644E1,1.2383942E1,1.165245E1,2.9544983E1,2.6966486E0,0E0,0E0,0E0,0E0,0E0,0E0,0E0,0E0,0E0,0E0,0E0,0E0,0E0,0E0,0E0,0E0,0E0,0E0,0E0,0E0,0E0,0E0,0E0,0E0,0E0,0E0,0E0,0E0,0E0,0E0,0E0,0E0,0E0,0E0,0E0,0E0,0E0,0E0,0E0,0E0,0E0,0E0,0E0,0E0,0E0,0E0,0E0,0E0,0E0,0E0],"parents":[2147483647,0,0,1,1,2,2,3,3,4,4,5,5,6,6,7,7,8,8,9,9,10,10,11,11,12,12,13,13,14,14,15,15,16,16,18,18,19,19,20,20,21,21,23,23,24,24,25,25,26,26,27,27,28,28,29,29,30,30,31,31,32,32,33,33,35,35,36,36,37,37,39,39,40,40,42,42,43,43,44,44,45,45,46,46,47,47,48,48,49,49,50,50,51,51,52,52,53,53,54,54,55,55,56,56,57,57,58,58],"right_children":[2,4,6,8,10,12,14,16,18,20,22,24,26,28,30,32,34,-1,36,38,40,42,-1,44,46,48,50,52,54,56,58,60,62,64,-1,66,68,70,-1,72,74,-1,76,78,80,82,84,86,88,90,92,94,96,98,100,102,104,106,108,-1,-1,-1,-1,-1,-1,-1,-1,-1,-1,-1,-1,-1,-1,-1,-1,-1,-1,-1,-1,-1,-1,-1,-1,-1,-1,-1,-1,-1,-1,-1,-1,-1,-1,-1,-1,-1,-1,-1,-1,-1,-1,-1,-1,-1,-1,-1,-1,-1,-1],"split_conditions":[3.921569E-3,3.7647063E-1,3.019608E-1,3.019608E-1,8.235295E-1,3.921569E-3,7.568628E-1,3.019608E-1,7.8431375E-2,4.5882356E-1,9.450981E-1,3.921569E-3,2.7450982E-1,3.4509805E-1,7.411765E-1,3.921569E-3,1.4509805E-1,-1.0825186E-1,3.137255E-1,1.5686275E-2,4.9803925E-1,3.0588236E-1,7.344629E-2,3.921569E-3,3.019608E-1,3.529412E-2,3.019608E-1,3.137255E-2,7.686275E-1,8.1568635E-1,3.921569E-3,3.0588236E-1,1.0980393E-1,8.235294E-2,-1.1644661E-1,3.019608E-1,1.5686275E-2,7.0980394E-1,1.3551226E-1,7.725491E-1,3.5686275E-1,8.571476E-3,9.058824E-1,3.019608E-1,3.921569E-3,3.921569E-3,3.921569E-3,3.137255E-2,2.7450982E-1,3.921569E-3,4.3137256E-2,3.137255E-2,3.921569E-3,3.921569E-3,7.411765E-1,4.8627454E-1,7.5294125E-1,3.921569E-3,3.254902E-1,-1.1740941E-1,-6.290719E-3,5.19077E-3,1.5518229E-1,-5.1265925E-2,1.4959651E-1,1.7185746E-1,4.910955E-3,-8.926249E-2,4.285345E-2,-8.330143E-2,1.2270522E-1,1.4331084E-1,-3.105378E-2,6.497298E-2,-5.3170454E-2,-1.3677862E-1,-2.5665E-2,-8.415816E-2,2.929463E-2,-2.0006744E-2,1.2253145E-1,-1.990138E-2,7.124244E-2,-5.7612814E-2,1.252518E-1,-3.897582E-2,1.01347245E-1,9.141206E-2,6.909933E-3,-1.05626695E-1,6.251544E-2,-1.37316E-1,7.666334E-2,-3.0621553E-2,1.3962641E-1,-6.381153E-2,9.2377834E-2,-5.2882887E-2,1.18327655E-1,1.15228735E-1,-2.919134E-2,8.622404E-3,1.0945199E-1,9.264734E-2,-1.1790669E-1,-1.2738645E-1,3.5919394E-2,1.2222687E-1,-2.8683538E-2],"split_indices":[5088,6651,7610,10680,5454,5145,6627,10230,8382,7041,5055,5028,2238,6818,8720,5952,7947,0,6831,9831,5442,5637,0,10305,5418,3945,2238,3537,7200,8529,6756,9267,6213,8313,0,6390,5850,6777,0,10101,6057,0,6273,5058,11073,4635,4305,4002,2049,2451,2241,10227,3747,5091,6060,6048,5871,8400,6933,0,0,0,0,0,0,0,0,0,0,0,0,0,0,0,0,0,0,0,0,0,0,0,0,0,0,0,0,0,0,0,0,0,0,0,0,0,0,0,0,0,0,0,0,0,0,0,0,0,0],"split_type":[0,0,0,0,0,0,0,0,0,0,0,0,0,0,0,0,0,0,0,0,0,0,0,0,0,0,0,0,0,0,0,0,0,0,0,0,0,0,0,0,0,0,0,0,0,0,0,0,0,0,0,0,0,0,0,0,0,0,0,0,0,0,0,0,0,0,0,0,0,0,0,0,0,0,0,0,0,0,0,0,0,0,0,0,0,0,0,0,0,0,0,0,0,0,0,0,0,0,0,0,0,0,0,0,0,0,0,0,0],"sum_hessian":[5.976181E3,8.5238873E2,5.1237925E3,7.3890173E2,1.1348695E2,3.8976042E3,1.2261884E3,7.280702E2,1.0831544E1,8.311761E1,3.0369347E1,2.6805273E3,1.217077E3,1.0208652E3,2.053232E2,7.2084924E2,7.220947E0,2.2684567E0,8.5630865E0,4.3289627E1,3.982798E1,2.8275034E1,2.0943122E0,1.7840438E3,8.964834E2,8.959908E2,3.210862E2,3.7679608E2,6.440691E2,1.1162503E2,9.369817E1,7.1874194E2,2.10734E0,5.5049176E0,1.716029E0,5.772708E0,2.7903788E0,4.1195732E1,2.093893E0,1.3219479E1,2.6608501E1,1.0019232E0,2.7273111E1,1.4291992E3,3.5484467E2,7.4187537E2,1.5460802E2,1.1367813E2,7.823127E2,1.6055359E2,1.6053264E2,9.100578E1,2.8579028E2,5.87256E2,5.681311E1,1.009541E2,1.0670929E1,8.5842995E1,7.8551807E0,7.0752844E2,1.1213509E1,1.0198568E0,1.0874833E0,1.4027592E0,4.1021585E0,4.5468516E0,1.2258567E0,1.4349194E0,1.3554595E0,3.906548E1,2.130253E0,1.2177444E1,1.0420343E0,1.1082898E1,1.5525602E1,2.6175009E1,1.0981016E0,1.2879883E3,1.4121089E2,2.6984406E2,8.5000595E1,4.5659735E2,2.85278E2,6.8972898E0,1.4771072E2,9.7826904E1,1.5851227E1,6.893586E2,9.295411E1,1.3500597E2,2.5547625E1,9.535991E0,1.5099664E2,7.713304E1,1.3872745E1,1.346443E1,2.7232587E2,5.0957494E0,5.821602E2,3.4253357E1,2.2559752E1,1.4357084E1,8.6597015E1,2.894926E0,7.7760024E0,7.327211E1,1.2570882E1,6.855158E0,1.0000229E0],"tree_param":{"num_deleted":"0","num_feature":"12288","num_nodes":"109","size_leaf_vector":"1"}},{"base_weights":[3.581026E-5,-8.748099E-1,1.7323135E-1,-9.9507993E-1,-2.6377675E-1,-9.637841E-4,7.8406286E-1,-1.0491753E0,-1.5519695E-1,-4.1266212E-1,7.04781E-1,-2.0131436E-1,4.336754E-1,9.682075E-1,1.2637882E-1,-1.0969222E0,-2.9221967E-1,-7.9396284E-1,7.300376E-1,-5.124078E-1,7.9501057E-1,-8.4794843E-1,1.0989064E0,-3.6820757E-1,7.170226E-1,6.251306E-1,-9.225318E-2,6.796283E-1,1.1561977E0,8.149809E-1,-8.93518E-1,-1.1363106E0,-5.01849E-1,-8.065611E-1,1.0485785E0,-1.0667505E0,8.245158E-1,-4.1359574E-1,1.2652898E0,-5.937643E-1,8.759246E-1,-9.082572E-2,1.1559647E0,-1.1215981E-1,1.032462E-2,-6.905284E-2,1.3297055E0,-4.53931E-1,8.608405E-1,4.7227344E-1,1.3220339E0,-1.1455086E-1,7.332263E-1,-7.2309685E-1,5.3408164E-1,-2.334859E-1,8.692856E-1,1.6150497E-1,1.1823356E0,1.2117425E0,1.6592458E-1,-1.0938715E0,1.1276256E-1,-1.1487164E-1,7.8974895E-2,-6.4849935E-2,9.431347E-2,-1.047011E-1,7.963946E-2,1.5505765E-1,-7.703878E-2,-1.2342359E-1,2.7497876E-2,1.4385635E-1,-4.0191885E-2,7.090493E-2,-1.1509007E-1,1.6336793E-1,-5.8709044E-2,-6.709429E-2,7.805986E-2,1.3935158E-1,-8.266052E-2,-3.7682693E-2,1.4353302E-1,1.4561686E-1,-1.1822778E-2,-5.6179315E-2,4.570316E-2,-9.6472085E-2,1.0427161E-1,9.726094E-2,1.2203737E-2,1.3952099E-1,-5.9088238E-2,-4.002089E-2,7.832816E-2,7.727308E-2,-1.0598333E-1,-1.1034244E-1,9.581156E-3,-5.3789444E-2,7.329301E-2,-8.326809E-2,9.992459E-2,-9.020628E-3,9.955008E-2,-6.2368847E-2,1.424799E-1,1.1936344E-1,-8.176373E-2,1.2704596E-1,-9.685228E-3,-1.49834035E-2,1.20425336E-1,-1.1836942E-1,1.05265036E-1],"categories":[],"categories_nodes":[],"categories_segments":[],"categories_sizes":[],"default_left":[0,0,0,0,0,0,0,0,0,0,0,0,0,0,0,0,0,0,0,0,0,0,0,0,0,0,0,0,0,0,0,0,0,0,0,0,0,0,0,0,0,0,0,0,0,0,0,0,0,0,0,0,0,0,0,0,0,0,0,0,0,0,0,0,0,0,0,0,0,0,0,0,0,0,0,0,0,0,0,0,0,0,0,0,0,0,0,0,0,0,0,0,0,0,0,0,0,0,0,0,0,0,0,0,0,0,0,0,0,0,0,0,0,0,0,0,0],"id":10,"left_children":[1,3,5,7,9,11,13,15,17,19,21,23,25,27,29,31,33,35,37,39,41,43,45,47,49,51,53,55,57,59,61,63,65,67,69,71,73,75,77,79,81,-1,83,-1,-1,-1,85,87,89,91,93,95,97,99,101,103,105,107,109,111,113,115,-1,-1,-1,-1,-1,-1,-1,-1,-1,-1,-1,-1,-1,-1,-1,-1,-1,-1,-1,-1,-1,-1,-1,-1,-1,-1,-1,-1,-1,-1,-1,-1,-1,-1,-1,-1,-1,-1,-1,-1,-1,-1,-1,-1,-1,-1,-1,-1,-1,-1,-1,-1,-1,-1,-1],"loss_changes":[8.8070746E2,7.03277E1,5.1626746E2,3.6285034E1,2.3267345E1,3.2892987E2,1.3026782E2,2.6912842E1,2.869226E1,1.7119389E1,1.4149434E1,3.9652942E2,1.20063385E2,4.483728E1,1.6693326E2,1.6034546E1,3.261846E1,1.3840935E1,1.3597896E1,1.5063358E1,7.7981553E0,1.4008443E0,8.212425E0,2.309726E2,5.8303055E1,6.9955505E1,1.2640637E2,5.807292E1,1.3011902E1,3.6314514E1,4.0051544E1,1.6765015E1,1.0310957E1,1.3885994E1,1.3255365E1,6.083027E0,4.191838E0,7.076362E0,1.1055769E1,1.3488506E1,7.7888436E0,0E0,4.6075525E0,0E0,0E0,0E0,3.0992947E0,2.0134381E2,4.8498604E1,4.9804268E1,1.6790955E1,2.9112225E1,5.4835754E1,4.9727707E1,3.4631725E1,4.3864475E1,3.3623657E1,1.4934949E1,1.2153748E1,6.872635E0,1.8197515E1,1.8159508E1,0E0,0E0,0E0,0E0,0E0,0E0,0E0,0E0,0E0,0E0,0E0,0E0,0E0,0E0,0E0,0E0,0E0,0E0,0E0,0E0,0E0,0E0,0E0,0E0,0E0,0E0,0E0,0E0,0E0,0E0,0E0,0E0,0E0,0E0,0E0,0E0,0E0,0E0,0E0,0E0,0E0,0E0,0E0,0E0,0E0,0E0,0E0,0E0,0E0,0E0,0E0,0E0,0E0,0E0,0E0],"parents":[2147483647,0,0,1,1,2,2,3,3,4,4,5,5,6,6,7,7,8,8,9,9,10,10,11,11,12,12,13,13,14,14,15,15,16,16,17,17,18,18,19,19,20,20,21,21,22,22,23,23,24,24,25,25,26,26,27,27,28,28,29,29,30,30,31,31,32,32,33,33,34,34,35,35,36,36,37,37,38,38,39,39,40,40,42,42,46,46,47,47,48,48,49,49,50,50,51,51,52,52,53,53,54,54,55,55,56,56,57,57,58,58,59,59,60,60,61,61],"right_children":[2,4,6,8,10,12,14,16,18,20,22,24,26,28,30,32,34,36,38,40,42,44,46,48,50,52,54,56,58,60,62,64,66,68,70,72,74,76,78,80,82,-1,84,-1,-1,-1,86,88,90,92,94,96,98,100,102,104,106,108,110,112,114,116,-1,-1,-1,-1,-1,-1,-1,-1,-1,-1,-1,-1,-1,-1,-1,-1,-1,-1,-1,-1,-1,-1,-1,-1,-1,-1,-1,-1,-1,-1,-1,-1,-1,-1,-1,-1,-1,-1,-1,-1,-1,-1,-1,-1,-1,-1,-1,-1,-1,-1,-1,-1,-1,-1,-1],"split_conditions":[3.921569E-3,3.019608E-1,3.019608E-1,3.921569E-3,3.921569E-3,3.921569E-3,7.568628E-1,3.137255E-2,3.921569E-3,3.921569E-3,1.1764707E-1,3.921569E-3,2.7450982E-1,4.039216E-1,8.078432E-1,3.019608E-1,3.921569E-3,3.019608E-1,1.1764707E-2,4.54902E-1,8.235294E-2,1.8823531E-1,7.450981E-2,3.921569E-3,3.921569E-3,3.137255E-2,3.019608E-1,3.529412E-2,3.921569E-3,6.9803923E-1,7.843138E-3,4.666667E-1,4.54902E-1,3.019608E-1,1.9215688E-1,1.8039216E-1,2.784314E-1,1.254902E-1,2.9411766E-1,8.588236E-1,8.54902E-1,-9.082572E-2,8.235294E-2,-1.1215981E-1,1.032462E-2,-6.905284E-2,7.8431375E-2,3.019608E-1,3.921569E-3,5.8823533E-2,1.9215688E-1,3.137255E-2,2.784314E-1,3.921569E-3,8.235294E-2,2.3137257E-1,3.921569E-3,4.54902E-1,8.7843144E-1,7.686275E-1,3.921569E-3,3.921569E-3,1.1276256E-1,-1.1487164E-1,7.8974895E-2,-6.4849935E-2,9.431347E-2,-1.047011E-1,7.963946E-2,1.5505765E-1,-7.703878E-2,-1.2342359E-1,2.7497876E-2,1.4385635E-1,-4.0191885E-2,7.090493E-2,-1.1509007E-1,1.6336793E-1,-5.8709044E-2,-6.709429E-2,7.805986E-2,1.3935158E-1,-8.266052E-2,-3.7682693E-2,1.4353302E-1,1.4561686E-1,-1.1822778E-2,-5.6179315E-2,4.570316E-2,-9.6472085E-2,1.0427161E-1,9.726094E-2,1.2203737E-2,1.3952099E-1,-5.9088238E-2,-4.002089E-2,7.832816E-2,7.727308E-2,-1.0598333E-1,-1.1034244E-1,9.581156E-3,-5.3789444E-2,7.329301E-2,-8.326809E-2,9.992459E-2,-9.020628E-3,9.955008E-2,-6.2368847E-2,1.424799E-1,1.1936344E-1,-8.176373E-2,1.2704596E-1,-9.685228E-3,-1.49834035E-2,1.20425336E-1,-1.1836942E-1,1.05265036E-1],"split_indices":[4701,6843,7774,10029,8217,5145,7791,8793,10803,9648,8733,8286,2238,6046,7374,5460,9945,9651,5067,5661,9090,8130,6849,3870,11397,3759,2238,3546,5298,6792,4749,6249,6975,8790,4665,10221,7521,10413,8019,6204,5868,0,8112,0,0,0,2631,5613,3540,9714,5334,10431,8642,2445,2601,9135,3570,6780,9939,7183,5523,9072,0,0,0,0,0,0,0,0,0,0,0,0,0,0,0,0,0,0,0,0,0,0,0,0,0,0,0,0,0,0,0,0,0,0,0,0,0,0,0,0,0,0,0,0,0,0,0,0,0,0,0,0,0,0,0],"split_type":[0,0,0,0,0,0,0,0,0,0,0,0,0,0,0,0,0,0,0,0,0,0,0,0,0,0,0,0,0,0,0,0,0,0,0,0,0,0,0,0,0,0,0,0,0,0,0,0,0,0,0,0,0,0,0,0,0,0,0,0,0,0,0,0,0,0,0,0,0,0,0,0,0,0,0,0,0,0,0,0,0,0,0,0,0,0,0,0,0,0,0,0,0,0,0,0,0,0,0,0,0,0,0,0,0,0,0,0,0,0,0,0,0,0,0,0,0],"sum_hessian":[5.810508E3,9.595542E2,4.8509536E3,8.012209E2,1.583333E2,3.7753179E3,1.0756355E3,7.525043E2,4.871661E1,1.3773483E2,2.0598467E1,2.5845054E3,1.1908126E3,8.3997833E2,2.3565718E2,7.07432E2,4.507225E1,2.8357536E1,2.0359072E1,1.2775854E2,9.976292E0,3.9368916E0,1.6661575E1,2.1875515E3,3.969538E2,8.7287054E2,3.1794202E2,3.3316315E2,5.0681522E2,1.4079665E2,9.486053E1,6.6266046E2,4.4771564E1,3.286385E1,1.2208402E1,2.4559097E1,3.7984378E0,6.563219E0,1.3795853E1,1.2122693E2,6.531602E0,1.4793375E0,8.496954E0,2.9182048E0,1.0186868E0,1.6759181E0,1.4985658E1,2.0455122E3,1.4203937E2,2.8389038E2,1.1306344E2,1.1128762E2,7.6158295E2,1.583239E2,1.5961813E2,5.7258457E1,2.759047E2,1.3160593E1,4.9365463E2,8.6843285E1,5.3953358E1,8.672261E1,8.137921E0,6.5882056E2,3.8399131E0,4.114681E1,3.6247556E0,2.8878746E1,3.985105E0,9.683501E0,2.5249002E0,2.1904873E1,2.6542253E0,2.4158924E0,1.3825455E0,2.6169252E0,3.9462938E0,1.1605825E1,2.1900275E0,1.1526589E2,5.9610424E0,5.1480355E0,1.3835665E0,1.2561238E0,7.2408304E0,1.3776707E1,1.2089506E0,1.8292981E3,2.1621402E2,1.2478928E1,1.2956044E2,1.16164505E2,1.6772586E2,1.0915837E2,3.905072E0,8.48467E1,2.6440922E1,7.457223E2,1.5860633E1,1.0787556E2,5.0448338E1,2.4708973E1,1.3490915E2,3.8748478E1,1.8509981E1,3.2107525E1,2.4379715E2,8.428318E0,4.732275E0,4.9128232E2,2.3723104E0,8.314183E1,3.7014554E0,4.202817E1,1.1925186E1,8.366993E1,3.0526757E0],"tree_param":{"num_deleted":"0","num_feature":"12288","num_nodes":"117","size_leaf_vector":"1"}},{"base_weights":[2.168254E-4,-9.331139E-1,1.4679217E-1,-1.0292363E0,-2.7709234E-1,-8.6394735E-3,7.7987194E-1,-1.0672082E0,7.154277E-1,-8.050546E-3,-9.5537084E-1,-1.6495307E-1,5.196461E-1,9.046215E-1,-1.3888961E-2,-1.0867991E0,4.2489395E-1,-4.363264E-1,1.195363E0,-2.2228274E-1,1.2141613E0,4.1789964E-2,-1.0568386E0,-3.7528354E-1,3.6926037E-1,-3.1248865E-1,6.2594086E-1,5.7267886E-1,1.0203128E0,7.7757233E-1,-9.2735094E-1,-1.1052679E0,1.045827E-1,1.2004733E0,-9.966876E-2,9.176429E-2,-1.1445501E-1,8.4129E-2,1.4927484E-1,-4.3185797E-1,1.0869359E0,1.7267516E0,-9.30516E-2,-1.1297647E0,3.7461825E-2,-4.9710763E-1,5.450138E-1,-8.863367E-1,4.681992E-1,-5.760186E-1,6.9490266E-1,7.703448E-1,-4.5126647E-2,7.408913E-1,-2.9818118E-1,1.0543303E0,-4.227466E-1,-6.195945E-1,1.012985E0,-1.067731E0,8.6399347E-1,-1.1208512E-1,3.2016184E-2,1.1540307E-1,-4.58395E-2,1.7579038E-1,-8.118827E-2,9.4032414E-2,-8.4266864E-2,-7.126802E-2,6.2377255E-2,1.4218025E-1,-5.4333735E-2,1.8245678E-1,5.005626E-2,1.8880248E-2,-1.1964398E-1,-6.325737E-2,2.9287172E-2,-1.061031E-1,6.383862E-2,-1.1506962E-1,4.440879E-3,1.04686014E-1,2.4199637E-2,-1.0450981E-2,-1.0979374E-1,1.0988499E-1,-5.4454923E-2,1.3647072E-2,8.6860865E-2,-7.889038E-2,6.085942E-2,-4.4790287E-2,8.638915E-2,6.39826E-2,-8.7936476E-2,1.0715218E-1,-1.661855E-1,-1.0645833E-1,1.0179849E-1,-1.4904569E-1,5.7128187E-2,1.08859956E-1,-1.1543627E-1,-1.203298E-1,1.07946195E-1,1.0100707E-1,1.3780015E-2],"categories":[],"categories_nodes":[],"categories_segments":[],"categories_sizes":[],"default_left":[0,0,0,0,0,0,0,0,0,0,0,0,0,0,0,0,0,0,0,0,0,0,0,0,0,0,0,0,0,0,0,0,0,0,0,0,0,0,0,0,0,0,0,0,0,0,0,0,0,0,0,0,0,0,0,0,0,0,0,0,0,0,0,0,0,0,0,0,0,0,0,0,0,0,0,0,0,0,0,0,0,0,0,0,0,0,0,0,0,0,0,0,0,0,0,0,0,0,0,0,0,0,0,0,0,0,0,0,0],"id":11,"left_children":[1,3,5,7,9,11,13,15,17,19,21,23,25,27,29,31,33,35,37,39,41,-1,43,45,47,49,51,53,55,57,59,61,63,65,-1,-1,-1,67,-1,69,71,73,-1,75,-1,77,79,81,83,85,87,89,91,93,95,97,99,101,103,105,107,-1,-1,-1,-1,-1,-1,-1,-1,-1,-1,-1,-1,-1,-1,-1,-1,-1,-1,-1,-1,-1,-1,-1,-1,-1,-1,-1,-1,-1,-1,-1,-1,-1,-1,-1,-1,-1,-1,-1,-1,-1,-1,-1,-1,-1,-1,-1,-1],"loss_changes":[7.7286743E2,4.8068115E1,4.8046518E2,4.5046204E1,1.8124804E1,3.2389066E2,9.5319214E1,1.9596863E1,8.722988E0,1.9162203E1,4.3726788E0,3.402148E2,7.940936E1,3.1358337E1,9.594133E1,1.4338623E1,1.1342511E1,5.937546E0,3.4237232E0,1.7546047E1,1.3606825E1,0E0,3.1951733E0,2.4379636E2,1.0669317E2,2.7507175E1,7.702124E1,3.204622E1,3.0661377E1,2.4016426E1,1.641233E1,1.4499878E1,6.898632E0,8.614934E0,0E0,0E0,0E0,3.4325879E0,0E0,1.6560734E1,5.6161375E0,1.853733E-1,0E0,2.4690857E0,0E0,2.0551749E2,3.8826897E1,1.5511646E1,1.0363512E2,1.9936806E1,1.1425576E1,4.0606384E1,6.934237E1,2.7053383E1,2.0124691E1,2.9874268E1,1.4852274E1,1.2129078E1,1.1292095E1,1.805635E1,3.9429665E-1,0E0,0E0,0E0,0E0,0E0,0E0,0E0,0E0,0E0,0E0,0E0,0E0,0E0,0E0,0E0,0E0,0E0,0E0,0E0,0E0,0E0,0E0,0E0,0E0,0E0,0E0,0E0,0E0,0E0,0E0,0E0,0E0,0E0,0E0,0E0,0E0,0E0,0E0,0E0,0E0,0E0,0E0,0E0,0E0,0E0,0E0,0E0,0E0],"parents":[2147483647,0,0,1,1,2,2,3,3,4,4,5,5,6,6,7,7,8,8,9,9,10,10,11,11,12,12,13,13,14,14,15,15,16,16,17,17,18,18,19,19,20,20,22,22,23,23,24,24,25,25,26,26,27,27,28,28,29,29,30,30,31,31,32,32,33,33,37,37,39,39,40,40,41,41,43,43,45,45,46,46,47,47,48,48,49,49,50,50,51,51,52,52,53,53,54,54,55,55,56,56,57,57,58,58,59,59,60,60],"right_children":[2,4,6,8,10,12,14,16,18,20,22,24,26,28,30,32,34,36,38,40,42,-1,44,46,48,50,52,54,56,58,60,62,64,66,-1,-1,-1,68,-1,70,72,74,-1,76,-1,78,80,82,84,86,88,90,92,94,96,98,100,102,104,106,108,-1,-1,-1,-1,-1,-1,-1,-1,-1,-1,-1,-1,-1,-1,-1,-1,-1,-1,-1,-1,-1,-1,-1,-1,-1,-1,-1,-1,-1,-1,-1,-1,-1,-1,-1,-1,-1,-1,-1,-1,-1,-1,-1,-1,-1,-1,-1,-1],"split_conditions":[3.921569E-3,3.019608E-1,3.1764707E-1,3.019608E-1,7.843138E-1,3.921569E-3,7.9215693E-1,3.019608E-1,3.921569E-3,7.372549E-1,5.254902E-1,3.921569E-3,3.137255E-2,2.5882354E-1,7.725491E-1,4.7058827E-1,3.1764707E-1,3.137255E-2,1.1764707E-1,7.725491E-1,8.000001E-1,4.1789964E-2,9.294118E-1,3.019608E-1,3.921569E-3,3.137255E-2,2.7450982E-1,3.921569E-3,8.078432E-1,3.019608E-1,3.921569E-3,3.019608E-1,3.372549E-1,2.1568629E-1,-9.966876E-2,9.176429E-2,-1.1445501E-1,1.3333334E-1,1.4927484E-1,3.921569E-3,7.176471E-1,7.725491E-1,-9.30516E-2,5.803922E-1,3.7461825E-2,3.921569E-3,3.921569E-3,3.921569E-3,5.8823533E-2,1.6078432E-1,2.901961E-1,8.627451E-2,3.019608E-1,3.921569E-3,1.7254902E-1,9.7647065E-1,3.921569E-3,6.784314E-1,8.54902E-1,3.921569E-3,3.921569E-3,-1.1208512E-1,3.2016184E-2,1.1540307E-1,-4.58395E-2,1.7579038E-1,-8.118827E-2,9.4032414E-2,-8.4266864E-2,-7.126802E-2,6.2377255E-2,1.4218025E-1,-5.4333735E-2,1.8245678E-1,5.005626E-2,1.8880248E-2,-1.1964398E-1,-6.325737E-2,2.9287172E-2,-1.061031E-1,6.383862E-2,-1.1506962E-1,4.440879E-3,1.04686014E-1,2.4199637E-2,-1.0450981E-2,-1.0979374E-1,1.0988499E-1,-5.4454923E-2,1.3647072E-2,8.6860865E-2,-7.889038E-2,6.085942E-2,-4.4790287E-2,8.638915E-2,6.39826E-2,-8.7936476E-2,1.0715218E-1,-1.661855E-1,-1.0645833E-1,1.0179849E-1,-1.4904569E-1,5.7128187E-2,1.08859956E-1,-1.1543627E-1,-1.203298E-1,1.07946195E-1,1.0100707E-1,1.3780015E-2],"split_indices":[5088,8307,8928,9168,7203,4377,4122,6567,10125,5889,9708,4644,3759,7776,8172,6249,7413,10110,6798,6393,5448,0,5814,4287,4308,10431,10868,9237,3930,5658,5523,10431,6030,5289,0,0,0,10080,0,11037,7239,6600,0,7935,0,10311,4284,10224,9474,5694,8487,5136,10866,4326,6972,4761,5715,3156,8928,7332,1623,0,0,0,0,0,0,0,0,0,0,0,0,0,0,0,0,0,0,0,0,0,0,0,0,0,0,0,0,0,0,0,0,0,0,0,0,0,0,0,0,0,0,0,0,0,0,0,0],"split_type":[0,0,0,0,0,0,0,0,0,0,0,0,0,0,0,0,0,0,0,0,0,0,0,0,0,0,0,0,0,0,0,0,0,0,0,0,0,0,0,0,0,0,0,0,0,0,0,0,0,0,0,0,0,0,0,0,0,0,0,0,0,0,0,0,0,0,0,0,0,0,0,0,0,0,0,0,0,0,0,0,0,0,0,0,0,0,0,0,0,0,0,0,0,0,0,0,0,0,0,0,0,0,0,0,0,0,0,0,0],"sum_hessian":[5.647479E3,7.6580237E2,4.881677E3,6.6743823E2,9.836415E1,3.9201907E3,9.614859E2,6.536012E2,1.3837016E1,7.115293E1,2.7211218E1,3.0256296E3,8.9456104E2,8.307788E2,1.3070709E2,6.453989E2,8.202322E0,4.096663E0,9.740354E0,6.123725E1,9.91568E0,1.6576712E0,2.5553547E1,2.1711157E3,8.54514E2,1.0110609E2,7.9345496E2,2.1625322E2,6.145256E2,7.010981E1,6.059728E1,6.356178E2,9.781076E0,5.4076047E0,2.7947173E0,1.3053747E0,2.7912884E0,2.3272097E0,7.4131436E0,5.3364918E1,7.8723335E0,8.160209E0,1.7554712E0,2.4515362E1,1.0381845E0,1.9177181E3,2.5339754E2,6.183461E1,7.926793E2,8.0480804E1,2.062528E1,6.52828E2,1.4062698E2,1.813697E2,3.4883514E1,6.006361E2,1.3889512E1,9.874287E0,6.0235523E1,5.656822E1,4.0290627E0,6.2895557E2,6.6622434E0,3.048497E0,6.732579E0,4.33362E0,1.0739846E0,1.2020946E0,1.1251152E0,4.2408222E1,1.0956696E1,6.6369457E0,1.2353878E0,7.1053953E0,1.0548139E0,1.0918206E0,2.3423542E1,1.6371741E3,2.805441E2,1.3353221E1,2.4004431E2,4.7972633E1,1.3861975E1,2.2175883E2,5.7092053E2,4.291291E1,3.7567894E1,1.5641146E1,4.9841356E0,8.793988E1,5.648881E2,6.568568E1,7.49413E1,1.675842E1,1.6461128E2,1.3306481E1,2.1577034E1,5.974601E2,3.1759844E0,9.789454E0,4.100058E0,5.5581603E0,4.3161263E0,5.8685818E1,1.5497047E0,5.3622272E1,2.9459443E0,3.0288777E0,1.000185E0],"tree_param":{"num_deleted":"0","num_feature":"12288","num_nodes":"109","size_leaf_vector":"1"}},{"base_weights":[1.9031871E-4,-5.7550544E-1,2.1219705E-1,-8.829411E-1,-3.0860704E-1,5.2888308E-2,7.879682E-1,-9.9668187E-1,-2.9383022E-1,-3.9625812E-1,7.049204E-1,-6.653193E-2,8.984754E-1,-3.951278E-1,8.429175E-1,-1.0187004E0,8.795983E-1,-1.2065958E-1,-1.0777034E0,-4.5913205E-1,8.656919E-1,-1.0203303E0,8.635972E-1,-2.0210363E-1,6.486885E-1,-1.4720407E-1,9.61363E-1,-7.3492557E-1,8.54199E-1,-7.396928E-1,8.738256E-1,-1.0414438E0,5.416816E-1,1.2854471E0,-6.4064145E-2,-3.5300484E-1,7.613287E-1,7.186552E-2,-1.2446033E0,-5.396838E-1,5.4161817E-1,1.1104821E0,-6.4725375E-1,-1.4793041E-1,5.4642912E-2,9.374702E-1,-1.2582071E-1,-3.3015937E-1,5.8203584E-1,7.688453E-1,-2.1210188E-1,-1.1475544E0,4.4658262E-1,-1.9158773E-1,1.0032054E0,-1.0302489E0,3.0596092E-1,1.3598362E0,-1.0625315E-1,-1.1763995E0,8.398656E-1,-8.0631065E-1,8.972192E-1,-1.0629801E-1,2.268591E-2,1.03782885E-1,-9.870969E-2,2.7027053E-3,1.576292E-1,-8.805352E-2,3.724387E-3,1.2427409E-1,-2.9956553E-2,-2.4310317E-2,-1.2873971E-1,-3.9178357E-2,-1.0232543E-1,8.5956484E-2,-5.5147886E-2,-7.1082845E-2,1.2621203E-1,-1.5247953E-1,8.812044E-2,1.0981651E-1,5.4885875E-3,-4.327976E-2,7.222592E-2,7.725393E-2,-4.0413234E-2,-1.1859348E-1,8.099634E-2,-6.1733652E-2,7.9620115E-2,-1.4102815E-1,2.8210659E-2,-8.400109E-2,9.6505165E-2,8.70733E-2,-1.0053142E-1,1.0398444E-2,1.0546141E-1,-1.1601963E-1,9.2094004E-2,-9.760972E-2,1.081028E-1,1.5226999E-1,1.8300941E-2,-1.3982628E-1,5.8927078E-2,1.2530601E-1,-2.2892702E-2,-1.3442072E-1,4.2284384E-2,1.06323E-1,6.3852616E-2],"categories":[],"categories_nodes":[],"categories_segments":[],"categories_sizes":[],"default_left":[0,0,0,0,0,0,0,0,0,0,0,0,0,0,0,0,0,0,0,0,0,0,0,0,0,0,0,0,0,0,0,0,0,0,0,0,0,0,0,0,0,0,0,0,0,0,0,0,0,0,0,0,0,0,0,0,0,0,0,0,0,0,0,0,0,0,0,0,0,0,0,0,0,0,0,0,0,0,0,0,0,0,0,0,0,0,0,0,0,0,0,0,0,0,0,0,0,0,0,0,0,0,0,0,0,0,0,0,0,0,0,0,0,0,0],"id":12,"left_children":[1,3,5,7,9,11,13,15,17,19,21,23,25,27,29,31,33,35,37,39,41,43,45,47,49,51,53,55,57,59,61,63,65,67,-1,69,71,-1,73,75,77,79,81,-1,-1,83,-1,85,87,89,91,93,95,97,99,101,103,105,-1,107,109,111,113,-1,-1,-1,-1,-1,-1,-1,-1,-1,-1,-1,-1,-1,-1,-1,-1,-1,-1,-1,-1,-1,-1,-1,-1,-1,-1,-1,-1,-1,-1,-1,-1,-1,-1,-1,-1,-1,-1,-1,-1,-1,-1,-1,-1,-1,-1,-1,-1,-1,-1,-1,-1],"loss_changes":[6.711949E2,1.2117642E2,3.6861847E2,4.5759094E1,7.080021E1,3.1806644E2,5.6955444E1,2.4677551E1,1.5160058E1,5.8419884E1,1.8277433E1,2.677909E2,2.5773804E1,1.7327538E1,4.1375244E1,2.0772278E1,5.274185E0,1.940556E1,6.967209E0,5.64973E1,1.3700352E1,4.9868164E0,1.0386002E1,2.332832E2,4.568283E1,1.4161975E1,1.7935913E1,9.987223E0,1.0045313E1,1.2363791E1,3.284082E1,1.5580688E1,7.728342E0,2.1630135E0,0E0,1.5389758E1,1.0478519E1,0E0,4.9702072E-1,4.578598E1,1.8699078E1,9.33131E0,8.738489E0,0E0,0E0,8.071018E0,0E0,2.159258E2,6.1600914E1,3.2019012E1,2.2838732E1,3.7180443E0,1.0909726E1,1.2735795E1,1.6305084E1,7.341093E0,8.731458E0,1.1511946E0,0E0,6.0481586E0,2.121938E0,8.335716E0,3.3952576E1,0E0,0E0,0E0,0E0,0E0,0E0,0E0,0E0,0E0,0E0,0E0,0E0,0E0,0E0,0E0,0E0,0E0,0E0,0E0,0E0,0E0,0E0,0E0,0E0,0E0,0E0,0E0,0E0,0E0,0E0,0E0,0E0,0E0,0E0,0E0,0E0,0E0,0E0,0E0,0E0,0E0,0E0,0E0,0E0,0E0,0E0,0E0,0E0,0E0,0E0,0E0,0E0],"parents":[2147483647,0,0,1,1,2,2,3,3,4,4,5,5,6,6,7,7,8,8,9,9,10,10,11,11,12,12,13,13,14,14,15,15,16,16,17,17,18,18,19,19,20,20,21,21,22,22,23,23,24,24,25,25,26,26,27,27,28,28,29,29,30,30,31,31,32,32,33,33,35,35,36,36,38,38,39,39,40,40,41,41,42,42,45,45,47,47,48,48,49,49,50,50,51,51,52,52,53,53,54,54,55,55,56,56,57,57,59,59,60,60,61,61,62,62],"right_children":[2,4,6,8,10,12,14,16,18,20,22,24,26,28,30,32,34,36,38,40,42,44,46,48,50,52,54,56,58,60,62,64,66,68,-1,70,72,-1,74,76,78,80,82,-1,-1,84,-1,86,88,90,92,94,96,98,100,102,104,106,-1,108,110,112,114,-1,-1,-1,-1,-1,-1,-1,-1,-1,-1,-1,-1,-1,-1,-1,-1,-1,-1,-1,-1,-1,-1,-1,-1,-1,-1,-1,-1,-1,-1,-1,-1,-1,-1,-1,-1,-1,-1,-1,-1,-1,-1,-1,-1,-1,-1,-1,-1,-1,-1,-1,-1],"split_conditions":[8.235294E-2,3.921569E-3,3.019608E-1,3.019608E-1,3.1764707E-1,3.019608E-1,5.4901965E-2,3.019608E-1,8.6274517E-1,5.0980397E-2,7.450981E-2,3.921569E-3,3.137255E-2,3.137255E-2,7.843138E-3,3.019608E-1,2.8627452E-1,6.9803923E-1,4.901961E-1,3.019608E-1,1.0196079E-1,3.4509805E-1,4.4705886E-1,3.921569E-3,2.7450982E-1,1.0196079E-1,3.529412E-2,3.4509805E-1,1.9607845E-1,3.921569E-3,3.529412E-2,3.019608E-1,3.9215688E-2,1.5686275E-2,-6.4064145E-2,3.921569E-3,7.803922E-1,7.186552E-2,6.627451E-1,2.6666668E-1,3.019608E-1,3.921569E-3,1.5686275E-1,-1.4793041E-1,5.4642912E-2,3.372549E-1,-1.2582071E-1,3.019608E-1,2.7450982E-1,3.921569E-3,3.019608E-1,3.5686275E-1,1.0980393E-1,1.21568635E-1,8.235294E-2,3.137255E-2,9.8039225E-2,2.901961E-1,-1.0625315E-1,4.54902E-1,1.1764707E-1,3.4509805E-1,2.901961E-1,-1.0629801E-1,2.268591E-2,1.03782885E-1,-9.870969E-2,2.7027053E-3,1.576292E-1,-8.805352E-2,3.724387E-3,1.2427409E-1,-2.9956553E-2,-2.4310317E-2,-1.2873971E-1,-3.9178357E-2,-1.0232543E-1,8.5956484E-2,-5.5147886E-2,-7.1082845E-2,1.2621203E-1,-1.5247953E-1,8.812044E-2,1.0981651E-1,5.4885875E-3,-4.327976E-2,7.222592E-2,7.725393E-2,-4.0413234E-2,-1.1859348E-1,8.099634E-2,-6.1733652E-2,7.9620115E-2,-1.4102815E-1,2.8210659E-2,-8.400109E-2,9.6505165E-2,8.70733E-2,-1.0053142E-1,1.0398444E-2,1.0546141E-1,-1.1601963E-1,9.2094004E-2,-9.760972E-2,1.081028E-1,1.5226999E-1,1.8300941E-2,-1.3982628E-1,5.8927078E-2,1.2530601E-1,-2.2892702E-2,-1.3442072E-1,4.2284384E-2,1.06323E-1,6.3852616E-2],"split_indices":[4896,5088,4161,6657,4749,4659,3945,9552,5871,2841,5706,4767,4311,10494,3969,6756,4908,7617,5634,10242,10635,8001,10008,9060,5292,7773,5655,4167,3576,9843,4713,9267,3951,10308,0,9729,7785,0,6813,10647,4467,2592,2730,0,0,1437,0,8499,1800,5097,6096,7728,8148,9132,4899,5391,6825,6876,0,5130,6429,4863,9081,0,0,0,0,0,0,0,0,0,0,0,0,0,0,0,0,0,0,0,0,0,0,0,0,0,0,0,0,0,0,0,0,0,0,0,0,0,0,0,0,0,0,0,0,0,0,0,0,0,0,0,0],"split_type":[0,0,0,0,0,0,0,0,0,0,0,0,0,0,0,0,0,0,0,0,0,0,0,0,0,0,0,0,0,0,0,0,0,0,0,0,0,0,0,0,0,0,0,0,0,0,0,0,0,0,0,0,0,0,0,0,0,0,0,0,0,0,0,0,0,0,0,0,0,0,0,0,0,0,0,0,0,0,0,0,0,0,0,0,0,0,0,0,0,0,0,0,0,0,0,0,0,0,0,0,0,0,0,0,0,0,0,0,0,0,0,0,0,0,0],"sum_hessian":[5.497281E3,1.479108E3,4.0181729E3,6.862826E2,7.928254E2,3.1481975E3,8.6997534E2,5.746433E2,1.11639336E2,7.30279E2,6.2546375E1,2.7594136E3,3.88784E2,3.833813E1,8.316372E2,5.6842975E2,6.2135577E0,9.238408E1,1.9255255E1,6.962272E2,3.405183E1,4.8106966E0,5.7735676E1,2.3203105E3,4.3910287E2,2.1979156E1,3.6680484E2,3.0464104E1,7.8740273E0,1.5491323E1,8.161459E2,5.605914E2,7.83838E0,5.0261917E0,1.187366E0,7.359615E1,1.8787928E1,1.3558811E0,1.7899374E1,6.44788E2,5.143915E1,2.953859E1,4.5132427E0,3.763901E0,1.0467956E0,5.633257E1,1.4031093E0,1.9950786E3,3.25232E2,3.8541064E2,5.3692234E1,7.8394537E0,1.4139703E1,1.2720393E1,3.5408444E2,2.373902E1,6.725084E0,6.460325E0,1.4137022E0,1.2335982E1,3.1553419E0,1.0748069E1,8.053978E2,5.5139044E2,9.2008915E0,6.1602736E0,1.6781065E0,1.1487474E0,3.8774443E0,3.07596E1,4.283655E1,1.2805599E1,5.982329E0,1.0072658E0,1.6892109E1,4.9515488E2,1.4963315E2,4.0014008E1,1.1425142E1,1.9868678E0,2.7551722E1,2.8686478E0,1.6445951E0,4.7449104E1,8.883466E0,1.8183325E3,1.7674606E2,2.727584E2,5.24736E1,7.366371E0,3.7804428E2,3.8576267E1,1.5115964E1,6.633904E0,1.20555E0,3.8832207E0,1.0256483E1,5.487023E0,7.23337E0,1.9311844E1,3.347726E2,2.2636818E1,1.1022011E0,2.436099E0,4.288985E0,5.4167814E0,1.0435435E0,1.1143804E1,1.192178E0,2.1512594E0,1.0040824E0,7.4112096E0,3.3368595E0,4.8868475E2,3.1671307E2],"tree_param":{"num_deleted":"0","num_feature":"12288","num_nodes":"115","size_leaf_vector":"1"}},{"base_weights":[2.2465015E-4,-7.92951E-1,1.3804975E-1,-9.086967E-1,-7.4868664E-2,-4.0524438E-4,7.1920663E-1,-9.7249526E-1,-6.307793E-2,9.3620986E-2,-1.1164044E0,-1.7375278E-1,3.817652E-1,9.3714637E-1,3.702263E-2,-1.015375E0,1.4960462E-1,-5.663432E-1,8.8530445E-1,4.8120248E-1,-3.4725475E-1,-1.4800851E-2,-1.174941E-1,-3.582826E-1,4.6701208E-1,8.378E-1,1.7098182E-1,-4.8992518E-1,9.715524E-1,8.546528E-1,-6.517019E-1,-1.0369307E0,1.7160773E-1,-1.0271869E0,6.0460985E-1,-7.826329E-1,1.2600737E0,1.1943405E0,-9.8598614E-2,-4.6885174E-2,9.291924E-1,5.6142133E-1,-5.886777E-1,-4.8611724E-1,4.924855E-1,1.8187337E-1,9.6379554E-1,-5.8164775E-1,1.0052856E0,3.7438658E-1,-3.752004E-1,-1.0327765E0,7.506163E-1,7.2867054E-1,1.1168822E0,1.0350612E0,-6.2069845E-1,-8.371418E-1,1.14221394E-1,-1.0651765E-1,-2.557535E-2,9.600321E-2,-8.335192E-2,1.6603975E-2,-1.2490032E-1,8.9137726E-2,-1.1342976E-1,-9.141835E-2,7.6975964E-2,1.4760669E-1,4.1277777E-2,1.3889413E-1,-7.1507625E-2,-5.303449E-2,1.1229316E-1,1.1851658E-1,-3.0429363E-2,1.1154606E-1,-9.56626E-2,1.354231E-1,-6.932711E-2,-5.7827216E-2,5.771069E-2,8.635068E-2,7.2963806E-3,6.358543E-2,-4.169069E-2,-6.710126E-2,1.0312692E-1,-8.204202E-2,1.536824E-1,-3.8127985E-2,1.08858906E-1,8.574268E-2,1.627919E-2,-9.837389E-2,3.8822975E-2,-1.2610929E-1,6.1957695E-2,1.1740215E-1,-5.335009E-2,1.1886823E-3,8.465864E-2,1.2103758E-1,6.342244E-2,1.17931366E-1,6.9874935E-3,-1.830328E-1,1.5134859E-2,-9.618348E-2,8.771431E-2],"categories":[],"categories_nodes":[],"categories_segments":[],"categories_sizes":[],"default_left":[0,0,0,0,0,0,0,0,0,0,0,0,0,0,0,0,0,0,0,0,0,0,0,0,0,0,0,0,0,0,0,0,0,0,0,0,0,0,0,0,0,0,0,0,0,0,0,0,0,0,0,0,0,0,0,0,0,0,0,0,0,0,0,0,0,0,0,0,0,0,0,0,0,0,0,0,0,0,0,0,0,0,0,0,0,0,0,0,0,0,0,0,0,0,0,0,0,0,0,0,0,0,0,0,0,0,0,0,0,0,0],"id":13,"left_children":[1,3,5,7,9,11,13,15,17,19,21,23,25,27,29,31,33,35,37,39,41,-1,-1,43,45,47,49,51,53,55,57,59,61,63,65,67,69,71,-1,73,75,77,79,81,83,85,87,89,91,93,95,97,99,101,103,105,107,109,-1,-1,-1,-1,-1,-1,-1,-1,-1,-1,-1,-1,-1,-1,-1,-1,-1,-1,-1,-1,-1,-1,-1,-1,-1,-1,-1,-1,-1,-1,-1,-1,-1,-1,-1,-1,-1,-1,-1,-1,-1,-1,-1,-1,-1,-1,-1,-1,-1,-1,-1,-1,-1],"loss_changes":[5.8680176E2,6.597867E1,3.679724E2,3.685327E1,1.9653198E1,2.4480367E2,1.3078152E2,3.0761597E1,2.3922604E1,1.6709093E1,7.097645E-1,3.007522E2,1.1069693E2,3.321576E1,1.2110977E2,1.5859436E1,1.3625671E1,1.3891566E1,1.1241403E1,1.2330633E1,1.0393406E1,0E0,0E0,2.1496098E2,8.040231E1,8.717772E1,8.788973E1,1.1794246E1,2.2180603E1,2.6809875E1,3.980031E1,1.3012939E1,1.0143049E1,2.0979095E0,1.0059153E1,6.794857E0,9.388256E-2,6.7110233E0,0E0,1.4615367E1,9.247866E0,9.596084E0,8.402935E0,1.6855908E2,4.0157463E1,9.8842705E1,2.3547852E1,2.102644E1,3.8088837E1,5.873474E1,1.0018686E2,5.234063E0,3.6491854E0,2.0845078E1,1.7539276E1,1.2166443E1,1.0864603E1,2.35886E1,0E0,0E0,0E0,0E0,0E0,0E0,0E0,0E0,0E0,0E0,0E0,0E0,0E0,0E0,0E0,0E0,0E0,0E0,0E0,0E0,0E0,0E0,0E0,0E0,0E0,0E0,0E0,0E0,0E0,0E0,0E0,0E0,0E0,0E0,0E0,0E0,0E0,0E0,0E0,0E0,0E0,0E0,0E0,0E0,0E0,0E0,0E0,0E0,0E0,0E0,0E0,0E0,0E0],"parents":[2147483647,0,0,1,1,2,2,3,3,4,4,5,5,6,6,7,7,8,8,9,9,10,10,11,11,12,12,13,13,14,14,15,15,16,16,17,17,18,18,19,19,20,20,23,23,24,24,25,25,26,26,27,27,28,28,29,29,30,30,31,31,32,32,33,33,34,34,35,35,36,36,37,37,39,39,40,40,41,41,42,42,43,43,44,44,45,45,46,46,47,47,48,48,49,49,50,50,51,51,52,52,53,53,54,54,55,55,56,56,57,57],"right_children":[2,4,6,8,10,12,14,16,18,20,22,24,26,28,30,32,34,36,38,40,42,-1,-1,44,46,48,50,52,54,56,58,60,62,64,66,68,70,72,-1,74,76,78,80,82,84,86,88,90,92,94,96,98,100,102,104,106,108,110,-1,-1,-1,-1,-1,-1,-1,-1,-1,-1,-1,-1,-1,-1,-1,-1,-1,-1,-1,-1,-1,-1,-1,-1,-1,-1,-1,-1,-1,-1,-1,-1,-1,-1,-1,-1,-1,-1,-1,-1,-1,-1,-1,-1,-1,-1,-1,-1,-1,-1,-1,-1,-1],"split_conditions":[3.921569E-3,3.019608E-1,3.4509805E-1,3.921569E-3,8.2745105E-1,3.921569E-3,7.607844E-1,3.019608E-1,3.921569E-3,2.3529414E-2,1.0588236E-1,3.921569E-3,2.7450982E-2,3.921569E-3,7.5294125E-1,4.54902E-1,1.0588236E-1,3.019608E-1,1.6078432E-1,3.4901962E-1,1.3333334E-1,-1.4800851E-2,-1.174941E-1,3.019608E-1,3.921569E-3,1.1764707E-2,2.7450982E-1,4.1176474E-1,4.54902E-1,8.2745105E-1,3.921569E-3,3.921569E-3,7.843138E-1,3.529412E-2,1.0588236E-1,3.019608E-1,1.7254902E-1,5.4901965E-2,-9.8598614E-2,9.411766E-2,1.1764707E-2,2.1176472E-1,3.0980393E-1,3.019608E-1,3.0980393E-1,7.058824E-2,7.843138E-3,3.372549E-1,2.7450982E-2,3.921569E-3,3.019608E-1,3.921569E-3,3.0588236E-1,3.921569E-3,7.176471E-1,7.686275E-1,6.9803923E-1,1.7254902E-1,1.14221394E-1,-1.0651765E-1,-2.557535E-2,9.600321E-2,-8.335192E-2,1.6603975E-2,-1.2490032E-1,8.9137726E-2,-1.1342976E-1,-9.141835E-2,7.6975964E-2,1.4760669E-1,4.1277777E-2,1.3889413E-1,-7.1507625E-2,-5.303449E-2,1.1229316E-1,1.1851658E-1,-3.0429363E-2,1.1154606E-1,-9.56626E-2,1.354231E-1,-6.932711E-2,-5.7827216E-2,5.771069E-2,8.635068E-2,7.2963806E-3,6.358543E-2,-4.169069E-2,-6.710126E-2,1.0312692E-1,-8.204202E-2,1.536824E-1,-3.8127985E-2,